{"learner":{"attributes":{"scikit_learn":"{\"_estimator_type\": \"regressor\"}"},"feature_names":["id","bedrooms","bathrooms","sqft_living","sqft_lot","floors","waterfront","view","condition","grade","sqft_above","sqft_basement","yr_built","yr_renovated","zipcode","lat","long","sqft_living15","sqft_lot15"],"feature_types":["int","int","float","int","int","float","int","int","int","int","int","int","int","int","int","float","float","int","int"],"gradient_booster":{"model":{"gbtree_model_param":{"num_parallel_tree":"1","num_trees":"300"},"iteration_indptr":[0,1,2,3,4,5,6,7,8,9,10,11,12,13,14,15,16,17,18,19,20,21,22,23,24,25,26,27,28,29,30,31,32,33,34,35,36,37,38,39,40,41,42,43,44,45,46,47,48,49,50,51,52,53,54,55,56,57,58,59,60,61,62,63,64,65,66,67,68,69,70,71,72,73,74,75,76,77,78,79,80,81,82,83,84,85,86,87,88,89,90,91,92,93,94,95,96,97,98,99,100,101,102,103,104,105,106,107,108,109,110,111,112,113,114,115,116,117,118,119,120,121,122,123,124,125,126,127,128,129,130,131,132,133,134,135,136,137,138,139,140,141,142,143,144,145,146,147,148,149,150,151,152,153,154,155,156,157,158,159,160,161,162,163,164,165,166,167,168,169,170,171,172,173,174,175,176,177,178,179,180,181,182,183,184,185,186,187,188,189,190,191,192,193,194,195,196,197,198,199,200,201,202,203,204,205,206,207,208,209,210,211,212,213,214,215,216,217,218,219,220,221,222,223,224,225,226,227,228,229,230,231,232,233,234,235,236,237,238,239,240,241,242,243,244,245,246,247,248,249,250,251,252,253,254,255,256,257,258,259,260,261,262,263,264,265,266,267,268,269,270,271,272,273,274,275,276,277,278,279,280,281,282,283,284,285,286,287,288,289,290,291,292,293,294,295,296,297,298,299,300],"tree_info":[0,0,0,0,0,0,0,0,0,0,0,0,0,0,0,0,0,0,0,0,0,0,0,0,0,0,0,0,0,0,0,0,0,0,0,0,0,0,0,0,0,0,0,0,0,0,0,0,0,0,0,0,0,0,0,0,0,0,0,0,0,0,0,0,0,0,0,0,0,0,0,0,0,0,0,0,0,0,0,0,0,0,0,0,0,0,0,0,0,0,0,0,0,0,0,0,0,0,0,0,0,0,0,0,0,0,0,0,0,0,0,0,0,0,0,0,0,0,0,0,0,0,0,0,0,0,0,0,0,0,0,0,0,0,0,0,0,0,0,0,0,0,0,0,0,0,0,0,0,0,0,0,0,0,0,0,0,0,0,0,0,0,0,0,0,0,0,0,0,0,0,0,0,0,0,0,0,0,0,0,0,0,0,0,0,0,0,0,0,0,0,0,0,0,0,0,0,0,0,0,0,0,0,0,0,0,0,0,0,0,0,0,0,0,0,0,0,0,0,0,0,0,0,0,0,0,0,0,0,0,0,0,0,0,0,0,0,0,0,0,0,0,0,0,0,0,0,0,0,0,0,0,0,0,0,0,0,0,0,0,0,0,0,0,0,0,0,0,0,0,0,0,0,0,0,0,0,0,0,0,0,0,0,0,0,0,0,0,0,0,0,0,0,0,0,0,0,0,0,0],"trees":[{"base_weights":[3.515625E-3,-1.0233628E5,4.1932122E5,-2.2311547E5,-1.5153341E4,2.948986E5,1.02710825E6,-2.6950488E5,-1.4657847E5,-8.118908E4,1.0607247E5,6.469979E5,2.2563556E5,1.4386471E6,7.075581E5,-4.1315773E4,-1.998971E4,-2.457055E4,7.295993E2,-1.9416664E4,-4.4844033E3,1.490928E4,1.7892702E5,7.964951E4,1.5802852E5,-3.4964067E3,4.444735E4,1.7868711E5,4.2665256E5,9.840987E4,3.0151862E5],"categories":[],"categories_nodes":[],"categories_segments":[],"categories_sizes":[],"default_left":[0,0,0,0,0,0,0,0,0,0,0,0,0,0,0,0,0,0,0,0,0,0,0,0,0,0,0,0,0,0,0],"id":0,"left_children":[1,3,5,7,9,11,13,15,17,19,21,23,25,27,29,-1,-1,-1,-1,-1,-1,-1,-1,-1,-1,-1,-1,-1,-1,-1,-1],"loss_changes":[6.866313E14,1.3543201E14,2.3707602E14,1.9104803E13,5.981573E13,6.3432104E13,6.9075422E13,2.6763015E12,5.314569E12,1.1968501E13,1.9002819E13,1.9623957E13,3.8364997E13,7.729445E13,1.8937048E13,0E0,0E0,0E0,0E0,0E0,0E0,0E0,0E0,0E0,0E0,0E0,0E0,0E0,0E0,0E0,0E0],"parents":[2147483647,0,0,1,1,2,2,3,3,4,4,5,5,6,6,7,7,8,8,9,9,10,10,11,11,12,12,13,13,14,14],"right_children":[2,4,6,8,10,12,14,16,18,20,22,24,26,28,30,-1,-1,-1,-1,-1,-1,-1,-1,-1,-1,-1,-1,-1,-1,-1,-1],"split_conditions":[9E0,4.75338E1,4.04E3,1.94E3,1.98E3,1.974E3,-1.22188E2,1E0,1E0,1.46E3,1E0,3.21E3,4.7505E1,1.2E1,1E0,-4.1315773E4,-1.998971E4,-2.457055E4,7.295993E2,-1.9416664E4,-4.4844033E3,1.490928E4,1.7892702E5,7.964951E4,1.5802852E5,-3.4964067E3,4.444735E4,1.7868711E5,4.2665256E5,9.840987E4,3.0151862E5],"split_indices":[9,15,3,3,3,12,16,7,7,3,6,17,15,9,6,0,0,0,0,0,0,0,0,0,0,0,0,0,0,0,0],"split_type":[0,0,0,0,0,0,0,0,0,0,0,0,0,0,0,0,0,0,0,0,0,0,0,0,0,0,0,0,0,0,0],"sum_hessian":[1.5999E4,1.2861E4,3.138E3,5.391E3,7.47E3,2.606E3,5.32E2,3.355E3,2.036E3,4.836E3,2.634E3,4.27E2,2.179E3,2.31E2,3.01E2,3.214E3,1.41E2,1.828E3,2.08E2,2.491E3,2.345E3,2.619E3,1.5E1,3.34E2,9.3E1,4.82E2,1.697E3,1.98E2,3.3E1,2.91E2,1E1],"tree_param":{"num_deleted":"0","num_feature":"19","num_nodes":"31","size_leaf_vector":"1"}},{"base_weights":[8.554746E1,-5.1255867E4,6.271206E5,-1.0730204E5,1.3574403E5,5.633387E5,1.820331E6,-2.0842155E5,-3.707296E4,-5.421638E4,2.3062281E5,8.211605E5,3.9176075E5,1.1903742E6,2.622566E6,-3.794747E4,-2.6278973E4,-1.386523E4,3.6579338E3,-9.279328E3,5.041485E4,3.3140215E4,1.81909E5,1.0858664E4,1.3843767E5,3.953686E4,8.910757E4,4.1151977E4,1.9939062E5,5.1227403E5,1.8469306E5],"categories":[],"categories_nodes":[],"categories_segments":[],"categories_sizes":[],"default_left":[0,0,0,0,0,0,0,0,0,0,0,0,0,0,0,0,0,0,0,0,0,0,0,0,0,0,0,0,0,0,0],"id":1,"left_children":[1,3,5,7,9,11,13,15,17,19,21,23,25,27,29,-1,-1,-1,-1,-1,-1,-1,-1,-1,-1,-1,-1,-1,-1,-1,-1],"loss_changes":[5.1511808E14,1.5502305E14,9.113793E13,8.080768E13,6.1489675E13,5.059458E13,2.7705945E13,6.8617136E12,2.2856832E13,3.4139142E12,2.1377982E13,3.4905635E13,1.7812798E13,4.2157075E12,2.446566E13,0E0,0E0,0E0,0E0,0E0,0E0,0E0,0E0,0E0,0E0,0E0,0E0,0E0,0E0,0E0,0E0],"parents":[2147483647,0,0,1,1,2,2,3,3,4,4,5,5,6,6,7,7,8,8,9,9,10,10,11,11,12,12,13,13,14,14],"right_children":[2,4,6,8,10,12,14,16,18,20,22,24,26,28,30,-1,-1,-1,-1,-1,-1,-1,-1,-1,-1,-1,-1,-1,-1,-1,-1],"split_conditions":[1E1,2.44E3,4.75E0,4.75325E1,4.75238E1,-1.22189E2,1.2E1,1.54E3,1.66E3,1E0,1E0,4.74725E1,3.9E3,4.75292E1,-1.22188E2,-3.794747E4,-2.6278973E4,-1.386523E4,3.6579338E3,-9.279328E3,5.041485E4,3.3140215E4,1.81909E5,1.0858664E4,1.3843767E5,3.953686E4,8.910757E4,4.1151977E4,1.9939062E5,5.1227403E5,1.8469306E5],"split_indices":[9,3,2,15,15,16,9,3,3,6,6,15,3,15,16,0,0,0,0,0,0,0,0,0,0,0,0,0,0,0,0],"split_type":[0,0,0,0,0,0,0,0,0,0,0,0,0,0,0,0,0,0,0,0,0,0,0,0,0,0,0,0,0,0,0],"sum_hessian":[1.5999E4,1.4789E4,1.21E3,1.1379E4,3.41E3,1.15E3,6E1,4.663E3,6.716E3,1.136E3,2.274E3,4.58E2,6.92E2,3.5E1,2.5E1,1.989E3,2.674E3,3.533E3,3.183E3,1.115E3,2.1E1,2.253E3,2.1E1,5.5E1,4.03E2,4.25E2,2.67E2,5E0,3E1,1.5E1,1E1],"tree_param":{"num_deleted":"0","num_feature":"19","num_nodes":"31","size_leaf_vector":"1"}},{"base_weights":[1.6003743E2,-5.7191594E4,4.311976E5,-1.5907184E5,7.9521763E3,3.197006E5,8.991553E5,-1.9003369E5,-8.418875E4,-5.0635324E4,1.2259115E5,4.2342152E4,4.0865966E5,1.3254929E6,6.101318E5,-3.371476E4,-2.512552E4,-2.016751E4,-5.384874E3,-2.623291E3,-1.813931E4,2.4912203E4,-5.739128E3,-3.2042803E3,1.29545205E4,9.087995E4,3.7249402E4,1.697456E5,3.9455753E5,8.589094E4,2.4811494E5],"categories":[],"categories_nodes":[],"categories_segments":[],"categories_sizes":[],"default_left":[0,0,0,0,0,0,0,0,0,0,0,0,0,0,0,0,0,0,0,0,0,0,0,0,0,0,0,0,0,0,0],"id":2,"left_children":[1,3,5,7,9,11,13,15,17,19,21,23,25,27,29,-1,-1,-1,-1,-1,-1,-1,-1,-1,-1,-1,-1,-1,-1,-1,-1],"loss_changes":[3.9555595E14,9.372704E13,9.775101E13,1.2754409E13,5.7868082E13,3.746183E13,4.367428E13,3.0110153E12,3.9100833E12,1.3283523E13,2.0391196E13,1.0394489E12,3.6210483E13,3.3702642E13,7.5539415E12,0E0,0E0,0E0,0E0,0E0,0E0,0E0,0E0,0E0,0E0,0E0,0E0,0E0,0E0,0E0,0E0],"parents":[2147483647,0,0,1,1,2,2,3,3,4,4,5,5,6,6,7,7,8,8,9,9,10,10,11,11,12,12,13,13,14,14],"right_children":[2,4,6,8,10,12,14,16,18,20,22,24,26,28,30,-1,-1,-1,-1,-1,-1,-1,-1,-1,-1,-1,-1,-1,-1,-1,-1],"split_conditions":[3.16E3,4.75304E1,1.1E1,2.15E3,2.13E3,4.75238E1,-1.22188E2,1.41E3,4.73992E1,4.76959E1,4.77173E1,4.73896E1,-1.22185E2,5.25E0,1E0,-3.371476E4,-2.512552E4,-2.016751E4,-5.384874E3,-2.623291E3,-1.813931E4,2.4912203E4,-5.739128E3,-3.2042803E3,1.29545205E4,9.087995E4,3.7249402E4,1.697456E5,3.9455753E5,8.589094E4,2.4811494E5],"split_indices":[3,15,9,3,3,15,16,3,15,15,15,15,16,2,6,0,0,0,0,0,0,0,0,0,0,0,0,0,0,0,0],"split_type":[0,0,0,0,0,0,0,0,0,0,0,0,0,0,0,0,0,0,0,0,0,0,0,0,0,0,0,0,0,0,0],"sum_hessian":[1.5999E4,1.4121E4,1.878E3,5.507E3,8.614E3,1.518E3,3.6E2,3.895E3,1.612E3,5.701E3,2.913E3,3.69E2,1.149E3,1.44E2,2.16E2,1.529E3,2.366E3,7.89E2,8.23E2,3.875E3,1.826E3,2.293E3,6.2E2,1.51E2,2.18E2,5.14E2,6.35E2,1.27E2,1.7E1,2.1E2,6E0],"tree_param":{"num_deleted":"0","num_feature":"19","num_nodes":"31","size_leaf_vector":"1"}},{"base_weights":[1.9542432E2,-6.646115E4,2.7331956E5,-1.3309883E5,-4.173136E3,1.711193E5,6.0035025E5,-1.6156475E5,-6.617206E4,4.764929E4,-7.793926E4,4.4562866E5,1.2069216E5,5.142461E5,1.2829874E6,-1.1224924E4,-2.5186621E4,-1.8390555E4,-2.3569607E3,-7.402511E2,1.8000553E4,-1.2198497E4,1.1553564E5,5.1492605E4,9.7008625E4,1.6839527E4,1.3233202E5,1.1125524E5,5.156954E4,1.3885028E5,3.262316E5],"categories":[],"categories_nodes":[],"categories_segments":[],"categories_sizes":[],"default_left":[0,0,0,0,0,0,0,0,0,0,0,0,0,0,0,0,0,0,0,0,0,0,0,0,0,0,0,0,0,0,0],"id":3,"left_children":[1,3,5,7,9,11,13,15,17,19,21,23,25,27,29,-1,-1,-1,-1,-1,-1,-1,-1,-1,-1,-1,-1,-1,-1,-1,-1],"loss_changes":[2.913065E14,5.3386125E13,1.0481086E14,1.1827795E13,2.542111E13,3.307184E13,4.3247284E13,2.3866513E12,5.283002E12,1.4861769E13,7.9386787E12,7.413558E12,1.2885778E13,2.5526803E13,2.4437986E13,0E0,0E0,0E0,0E0,0E0,0E0,0E0,0E0,0E0,0E0,0E0,0E0,0E0,0E0,0E0,0E0],"parents":[2147483647,0,0,1,1,2,2,3,3,4,4,5,5,6,6,7,7,8,8,9,9,10,10,11,11,12,12,13,13,14,14],"right_children":[2,4,6,8,10,12,14,16,18,20,22,24,26,28,30,-1,-1,-1,-1,-1,-1,-1,-1,-1,-1,-1,-1,-1,-1,-1,-1],"split_conditions":[9E0,4.75566E1,3.78E3,8E0,4.76904E1,1.971E3,1.2E1,-1.22375E2,4.74299E1,1.81E3,1E0,2.912E3,1E0,-1.22188E2,5E0,-1.1224924E4,-2.5186621E4,-1.8390555E4,-2.3569607E3,-7.402511E2,1.8000553E4,-1.2198497E4,1.1553564E5,5.1492605E4,9.7008625E4,1.6839527E4,1.3233202E5,1.1125524E5,5.156954E4,1.3885028E5,3.262316E5],"split_indices":[9,15,3,9,15,12,9,16,15,17,6,17,6,16,2,0,0,0,0,0,0,0,0,0,0,0,0,0,0,0,0],"split_type":[0,0,0,0,0,0,0,0,0,0,0,0,0,0,0,0,0,0,0,0,0,0,0,0,0,0,0,0,0,0,0],"sum_hessian":[1.5999E4,1.2861E4,3.138E3,6.213E3,6.648E3,2.392E3,7.46E2,4.358E3,1.855E3,3.905E3,2.743E3,3.7E2,2.022E3,6.64E2,8.2E1,2.98E2,4.06E3,8.75E2,9.8E2,2.262E3,1.643E3,2.733E3,1E1,2.47E2,1.23E2,2.001E3,2.1E1,2.83E2,3.81E2,6E1,2.2E1],"tree_param":{"num_deleted":"0","num_feature":"19","num_nodes":"31","size_leaf_vector":"1"}},{"base_weights":[2.2792747E2,-5.4087164E4,2.5921333E5,-1.1764652E5,-3.4670967E3,2.151657E5,8.504414E5,-1.4263562E5,-6.9697414E4,-5.0245137E4,5.7284117E4,1.1097321E4,2.8237756E5,6.45024E5,1.4057125E6,-5.829824E3,-2.2422824E4,-1.7108033E4,-4.1639385E3,-3.0120842E3,-1.718694E4,2.9123652E4,3.694534E3,-1.03677435E1,5.9637613E4,3.9532402E4,1.8677444E5,1.3588505E3,1.11478336E5,2.996262E5,1.139777E5],"categories":[],"categories_nodes":[],"categories_segments":[],"categories_sizes":[],"default_left":[0,0,0,0,0,0,0,0,0,0,0,0,0,0,0,0,0,0,0,0,0,0,0,0,0,0,0,0,0,0,0],"id":4,"left_children":[1,3,5,7,9,11,13,15,17,19,21,23,25,27,29,-1,-1,-1,-1,-1,-1,-1,-1,-1,-1,-1,-1,-1,-1,-1,-1],"loss_changes":[2.2508306E14,4.2555866E13,7.205806E13,7.016341E12,2.093006E13,3.5424815E13,2.0993246E13,2.7336544E12,3.7376963E12,8.072627E12,1.431535E13,2.766379E12,3.4893656E13,8.85824E12,1.7975302E13,0E0,0E0,0E0,0E0,0E0,0E0,0E0,0E0,0E0,0E0,0E0,0E0,0E0,0E0,0E0,0E0],"parents":[2147483647,0,0,1,1,2,2,3,3,4,4,5,5,6,6,7,7,8,8,9,9,10,10,11,11,12,12,13,13,14,14],"right_children":[2,4,6,8,10,12,14,16,18,20,22,24,26,28,30,-1,-1,-1,-1,-1,-1,-1,-1,-1,-1,-1,-1,-1,-1,-1,-1],"split_conditions":[2.85E3,4.75462E1,4.8E3,1.96E3,8E0,4.7526E1,1.2E1,-1.22376E2,4.73992E1,4.77067E1,1.957E3,4E0,1E0,4.7511E1,-1.22188E2,-5.829824E3,-2.2422824E4,-1.7108033E4,-4.1639385E3,-3.0120842E3,-1.718694E4,2.9123652E4,3.694534E3,-1.03677435E1,5.9637613E4,3.9532402E4,1.8677444E5,1.3588505E3,1.11478336E5,2.996262E5,1.139777E5],"split_indices":[3,15,3,17,9,15,9,16,15,15,12,7,6,15,16,0,0,0,0,0,0,0,0,0,0,0,0,0,0,0,0],"split_type":[0,0,0,0,0,0,0,0,0,0,0,0,0,0,0,0,0,0,0,0,0,0,0,0,0,0,0,0,0,0,0],"sum_hessian":[1.5999E4,1.3226E4,2.773E3,5.863E3,7.363E3,2.582E3,1.91E2,3.853E3,2.01E3,4.16E3,3.203E3,6.4E2,1.942E3,1.41E2,5E1,2.39E2,3.614E3,9.76E2,1.034E3,2.833E3,1.327E3,6.16E2,2.587E3,6.23E2,1.7E1,1.906E3,3.6E1,1.9E1,1.22E2,2.5E1,2.5E1],"tree_param":{"num_deleted":"0","num_feature":"19","num_nodes":"31","size_leaf_vector":"1"}},{"base_weights":[2.4220317E2,-2.9392727E4,3.6217478E5,-7.99227E4,3.682492E4,3.092399E5,9.669192E5,-1.1883948E5,-3.3767406E4,1.7470045E5,2.1332412E3,2.2502795E5,5.631915E5,8.3369525E5,1.9326979E6,-1.8063758E4,2.2693682E4,1.6457411E3,-1.2943505E4,1.7934793E4,6.877647E4,-1.1655741E4,4.5858374E3,5.4512715E4,2.117128E4,1.2798987E5,5.7172574E4,1.3543288E5,3.1595959E4,3.3230916E5,6.605641E4],"categories":[],"categories_nodes":[],"categories_segments":[],"categories_sizes":[],"default_left":[0,0,0,0,0,0,0,0,0,0,0,0,0,0,0,0,0,0,0,0,0,0,0,0,0,0,0,0,0,0,0],"id":5,"left_children":[1,3,5,7,9,11,13,15,17,19,21,23,25,27,29,-1,-1,-1,-1,-1,-1,-1,-1,-1,-1,-1,-1,-1,-1,-1,-1],"loss_changes":[1.716242E14,4.9489927E13,3.846759E13,1.5064434E13,3.0621248E13,2.3718395E13,1.086922E13,1.9674599E12,9.021868E12,2.0083988E13,1.1618348E13,9.688662E12,1.430188E13,3.5603433E12,3.6650038E12,0E0,0E0,0E0,0E0,0E0,0E0,0E0,0E0,0E0,0E0,0E0,0E0,0E0,0E0,0E0,0E0],"parents":[2147483647,0,0,1,1,2,2,3,3,4,4,5,5,6,6,7,7,8,8,9,9,10,10,11,11,12,12,13,13,14,14],"right_children":[2,4,6,8,10,12,14,16,18,20,22,24,26,28,30,-1,-1,-1,-1,-1,-1,-1,-1,-1,-1,-1,-1,-1,-1,-1,-1],"split_conditions":[1E1,8E0,4E0,4.75671E1,1.964E3,4.32E3,5E0,1E0,4.76914E1,2.73E3,4.74662E1,-1.22188E2,-1.222E2,-1.22067E2,4.5537E4,-1.8063758E4,2.2693682E4,1.6457411E3,-1.2943505E4,1.7934793E4,6.877647E4,-1.1655741E4,4.5858374E3,5.4512715E4,2.117128E4,1.2798987E5,5.7172574E4,1.3543288E5,3.1595959E4,3.3230916E5,6.605641E4],"split_indices":[9,9,7,15,12,3,2,6,15,17,15,16,16,16,4,0,0,0,0,0,0,0,0,0,0,0,0,0,0,0,0],"split_type":[0,0,0,0,0,0,0,0,0,0,0,0,0,0,0,0,0,0,0,0,0,0,0,0,0,0,0,0,0,0,0],"sum_hessian":[1.5999E4,1.4789E4,1.21E3,8.388E3,6.401E3,1.114E3,9.6E1,4.55E3,3.838E3,1.286E3,5.115E3,8.38E2,2.76E2,8.6E1,1E1,4.524E3,2.6E1,2.073E3,1.765E3,1.078E3,2.08E2,1.343E3,3.772E3,3.15E2,5.23E2,1.05E2,1.71E2,7.7E1,9E0,8E0,2E0],"tree_param":{"num_deleted":"0","num_feature":"19","num_nodes":"31","size_leaf_vector":"1"}},{"base_weights":[2.6207446E2,-2.6149203E4,3.0925284E5,-5.568216E4,5.838674E4,2.795079E5,1.1249426E6,-9.376536E4,-1.6742828E4,-2.2519287E4,1.0890234E5,2.653364E5,1.5715968E6,5.771575E5,1.312326E6,-1.68086E4,-8.944013E3,3.0153408E3,-9.862679E3,-5.133587E3,2.3560762E4,2.2301234E4,-3.2299038E3,9.683705E3,5.05407E4,1.5413275E5,4.5638453E5,-1.2122817E4,9.580856E4,2.0209419E5,1.7122473E4],"categories":[],"categories_nodes":[],"categories_segments":[],"categories_sizes":[],"default_left":[0,0,0,0,0,0,0,0,0,0,0,0,0,0,0,0,0,0,0,0,0,0,0,0,0,0,0,0,0,0,0],"id":6,"left_children":[1,3,5,7,9,11,13,15,17,19,21,23,25,27,29,-1,-1,-1,-1,-1,-1,-1,-1,-1,-1,-1,-1,-1,-1,-1,-1],"loss_changes":[1.3058156E14,3.6805575E13,3.0256501E13,1.6199488E13,1.5602593E13,2.1867298E13,3.758994E12,3.4422275E12,9.757615E12,3.0911777E12,1.2194377E13,1.7301378E13,7.277147E12,5.782393E11,1.1869629E12,0E0,0E0,0E0,0E0,0E0,0E0,0E0,0E0,0E0,0E0,0E0,0E0,0E0,0E0,0E0,0E0],"parents":[2147483647,0,0,1,1,2,2,3,3,4,4,5,5,6,6,7,7,8,8,9,9,10,10,11,11,12,12,13,13,14,14],"right_children":[2,4,6,8,10,12,14,16,18,20,22,24,26,28,30,-1,-1,-1,-1,-1,-1,-1,-1,-1,-1,-1,-1,-1,-1,-1,-1],"split_conditions":[3.45E3,2.35E3,1E0,4.75671E1,4.75412E1,1.3E1,-1.2227E2,1.81E3,4.76904E1,3E0,4.77082E1,4.75446E1,6E0,1.26039304E8,9.4066E9,-1.68086E4,-8.944013E3,3.0153408E3,-9.862679E3,-5.133587E3,2.3560762E4,2.2301234E4,-3.2299038E3,9.683705E3,5.05407E4,1.5413275E5,4.5638453E5,-1.2122817E4,9.580856E4,2.0209419E5,1.7122473E4],"split_indices":[3,3,6,15,15,9,16,17,15,7,15,15,1,0,0,0,0,0,0,0,0,0,0,0,0,0,0,0,0,0,0],"split_type":[0,0,0,0,0,0,0,0,0,0,0,0,0,0,0,0,0,0,0,0,0,0,0,0,0,0,0,0,0,0,0],"sum_hessian":[1.5999E4,1.474E4,1.259E3,1.0924E4,3.816E3,1.216E3,4.3E1,5.522E3,5.402E3,1.467E3,2.349E3,1.204E3,1.2E1,1.2E1,3.1E1,3.594E3,1.928E3,3.084E3,2.318E3,1.378E3,8.9E1,1.8E3,5.49E2,3.17E2,8.87E2,1E1,2E0,1E0,1.1E1,3E1,1E0],"tree_param":{"num_deleted":"0","num_feature":"19","num_nodes":"31","size_leaf_vector":"1"}},{"base_weights":[2.8392056E2,-3.827286E4,1.5826958E5,-7.182503E4,-4.938333E3,1.1621676E5,4.6420516E5,-7.884179E4,2.7926615E4,3.225931E5,-1.135365E4,3.1217975E5,7.1144125E4,7.3328094E5,3.0531012E5,-1.6227508E4,-9.104837E3,6.2606976E2,3.0095232E4,7.792267E4,3.542151E4,-1.0357018E4,2.0165116E3,3.6299586E4,9.08029E4,9.792884E3,9.517755E4,1.0265697E5,4.107461E5,4.188629E4,1.5395747E5],"categories":[],"categories_nodes":[],"categories_segments":[],"categories_sizes":[],"default_left":[0,0,0,0,0,0,0,0,0,0,0,0,0,0,0,0,0,0,0,0,0,0,0,0,0,0,0,0,0,0,0],"id":7,"left_children":[1,3,5,7,9,11,13,15,17,19,21,23,25,27,29,-1,-1,-1,-1,-1,-1,-1,-1,-1,-1,-1,-1,-1,-1,-1,-1],"loss_changes":[9.746875E13,1.4385095E13,4.0330716E13,4.4887735E12,1.3562823E13,2.4364506E13,1.5980198E13,3.1816187E12,1.7303367E12,1.9879543E12,9.056752E12,1.0470526E13,7.3712093E12,1.1852692E13,4.2246896E12,0E0,0E0,0E0,0E0,0E0,0E0,0E0,0E0,0E0,0E0,0E0,0E0,0E0,0E0,0E0,0E0],"parents":[2147483647,0,0,1,1,2,2,3,3,4,4,5,5,6,6,7,7,8,8,9,9,10,10,11,11,12,12,13,13,14,14],"right_children":[2,4,6,8,10,12,14,16,18,20,22,24,26,28,30,-1,-1,-1,-1,-1,-1,-1,-1,-1,-1,-1,-1,-1,-1,-1,-1],"split_conditions":[9E0,4.75637E1,1.1E1,1E0,9.8005E4,1.976E3,-1.222E2,1.53E3,4E0,-1.22207E2,1.41E3,3.38E3,1E0,7.5E0,1E0,-1.6227508E4,-9.104837E3,6.2606976E2,3.0095232E4,7.792267E4,3.542151E4,-1.0357018E4,2.0165116E3,3.6299586E4,9.08029E4,9.792884E3,9.517755E4,1.0265697E5,4.107461E5,4.188629E4,1.5395747E5],"split_indices":[9,15,9,7,14,12,16,3,7,16,3,17,6,2,6,0,0,0,0,0,0,0,0,0,0,0,0,0,0,0,0],"split_type":[0,0,0,0,0,0,0,0,0,0,0,0,0,0,0,0,0,0,0,0,0,0,0,0,0,0,0,0,0,0,0],"sum_hessian":[1.5999E4,1.2861E4,3.138E3,6.409E3,6.452E3,2.76E3,3.78E2,5.988E3,4.21E2,1.23E2,6.329E3,5.15E2,2.245E3,1.39E2,2.39E2,2.286E3,3.702E3,3.71E2,5E1,3.6E1,8.7E1,1.902E3,4.427E3,4.17E2,9.8E1,2.223E3,2.2E1,1.37E2,2E0,2.32E2,7E0],"tree_param":{"num_deleted":"0","num_feature":"19","num_nodes":"31","size_leaf_vector":"1"}},{"base_weights":[3.070707E2,-2.666667E4,1.751129E5,-7.234763E4,-1.8789698E3,1.4723494E5,6.156109E5,-8.331842E4,-1.2451184E2,2.95823E5,-6.8286714E3,1.3399738E5,7.652641E5,4.1226003E5,1.04759256E6,-1.711307E4,-1.0991059E4,-9.106726E3,3.1564756E3,6.8093266E4,2.986847E4,-2.6381177E3,1.798384E4,-2.3096375E3,2.6331543E4,5.6099074E4,1.3639588E5,-1.469653E4,7.530112E4,2.0816048E5,8.97908E4],"categories":[],"categories_nodes":[],"categories_segments":[],"categories_sizes":[],"default_left":[0,0,0,0,0,0,0,0,0,0,0,0,0,0,0,0,0,0,0,0,0,0,0,0,0,0,0,0,0,0,0],"id":8,"left_children":[1,3,5,7,9,11,13,15,17,19,21,23,25,27,29,-1,-1,-1,-1,-1,-1,-1,-1,-1,-1,-1,-1,-1,-1,-1,-1],"loss_changes":[7.544734E13,1.5696166E13,2.617669E13,3.8634636E12,1.3244686E13,1.6366208E13,1.0724294E13,1.2999008E12,8.271986E11,2.1574357E12,1.2055599E13,1.2242506E13,2.0270107E12,4.0789176E12,5.278104E12,0E0,0E0,0E0,0E0,0E0,0E0,0E0,0E0,0E0,0E0,0E0,0E0,0E0,0E0,0E0,0E0],"parents":[2147483647,0,0,1,1,2,2,3,3,4,4,5,5,6,6,7,7,8,8,9,9,10,10,11,11,12,12,13,13,14,14],"right_children":[2,4,6,8,10,12,14,16,18,20,22,24,26,28,30,-1,-1,-1,-1,-1,-1,-1,-1,-1,-1,-1,-1,-1,-1,-1,-1],"split_conditions":[3.06E3,4.75124E1,5.24E3,1.845E4,9.8005E4,1E0,1.2E1,4.73359E1,1.75E0,-1.22205E2,1E0,4.7518E1,-1.2227E2,4.74871E1,-1.22208E2,-1.711307E4,-1.0991059E4,-9.106726E3,3.1564756E3,6.8093266E4,2.986847E4,-2.6381177E3,1.798384E4,-2.3096375E3,2.6331543E4,5.6099074E4,1.3639588E5,-1.469653E4,7.530112E4,2.0816048E5,8.97908E4],"split_indices":[3,15,3,4,14,6,9,15,2,16,7,15,16,15,16,0,0,0,0,0,0,0,0,0,0,0,0,0,0,0,0],"split_type":[0,0,0,0,0,0,0,0,0,0,0,0,0,0,0,0,0,0,0,0,0,0,0,0,0,0,0,0,0,0,0],"sum_hessian":[1.5999E4,1.3861E4,2.138E3,4.875E3,8.986E3,2.012E3,1.26E2,4.232E3,6.43E2,1.46E2,8.84E3,1.971E3,4.1E1,8.7E1,3.9E1,1.039E3,3.193E3,1.66E2,4.77E2,5.4E1,9.2E1,8.149E3,6.91E2,4.29E2,1.542E3,1.2E1,2.9E1,1.3E1,7.4E1,2.1E1,1.8E1],"tree_param":{"num_deleted":"0","num_feature":"19","num_nodes":"31","size_leaf_vector":"1"}},{"base_weights":[3.019091E2,-1.6990291E4,2.1149212E5,-4.748877E4,2.2976705E4,1.5830442E5,4.795644E5,-9.306687E4,-3.6112625E4,1.5299634E5,2.9082358E3,2.912062E5,8.0928836E4,4.2553156E5,1.3692625E6,-1.8304623E4,-1.192744E4,1.7481097E3,-8.777979E3,1.2098858E4,4.099609E4,-4.307998E2,2.3263166E4,-9.937391E3,6.057834E4,7.7970103E3,3.583365E4,8.94518E3,7.1335125E4,2.7335512E5,1.8110523E4],"categories":[],"categories_nodes":[],"categories_segments":[],"categories_sizes":[],"default_left":[0,0,0,0,0,0,0,0,0,0,0,0,0,0,0,0,0,0,0,0,0,0,0,0,0,0,0,0,0,0,0],"id":9,"left_children":[1,3,5,7,9,11,13,15,17,19,21,23,25,27,29,-1,-1,-1,-1,-1,-1,-1,-1,-1,-1,-1,-1,-1,-1,-1,-1],"loss_changes":[5.8434687E13,1.8029102E13,1.7190699E13,4.34636E12,1.6704262E13,1.0383182E13,9.031926E12,6.476991E11,7.1878737E12,7.427693E12,4.879771E12,1.5006133E13,2.9187527E12,3.450157E12,6.0028187E12,0E0,0E0,0E0,0E0,0E0,0E0,0E0,0E0,0E0,0E0,0E0,0E0,0E0,0E0,0E0,0E0],"parents":[2147483647,0,0,1,1,2,2,3,3,4,4,5,5,6,6,7,7,8,8,9,9,10,10,11,11,12,12,13,13,14,14],"right_children":[2,4,6,8,10,12,14,16,18,20,22,24,26,28,30,-1,-1,-1,-1,-1,-1,-1,-1,-1,-1,-1,-1,-1,-1,-1,-1],"split_conditions":[1E1,8E0,3E0,7E0,1.955E3,-1.22188E2,5.25E0,9.2E2,1.954E3,2.23E3,3E0,4.75651E1,4.29E3,4.75275E1,4.5537E4,-1.8304623E4,-1.192744E4,1.7481097E3,-8.777979E3,1.2098858E4,4.099609E4,-4.307998E2,2.3263166E4,-9.937391E3,6.057834E4,7.7970103E3,3.583365E4,8.94518E3,7.1335125E4,2.7335512E5,1.8110523E4],"split_indices":[9,9,7,9,12,16,2,3,12,17,7,15,10,15,4,0,0,0,0,0,0,0,0,0,0,0,0,0,0,0,0],"split_type":[0,0,0,0,0,0,0,0,0,0,0,0,0,0,0,0,0,0,0,0,0,0,0,0,0,0,0,0,0,0,0],"sum_hessian":[1.5999E4,1.4789E4,1.21E3,8.388E3,6.401E3,1.011E3,1.99E2,1.674E3,6.714E3,8.55E2,5.546E3,3.71E2,6.4E2,1.89E2,1E1,5.31E2,1.143E3,2.144E3,4.57E3,5.35E2,3.2E2,5.344E3,2.02E2,8.9E1,2.82E2,5.42E2,9.8E1,2.3E1,1.66E2,7E0,3E0],"tree_param":{"num_deleted":"0","num_feature":"19","num_nodes":"31","size_leaf_vector":"1"}},{"base_weights":[2.8816556E2,-1.2426426E4,2.1823784E5,-2.8940967E4,5.553545E4,3.5207125E5,1.1289319E5,-6.1374953E4,-1.1741193E4,4.1456043E4,2.1989923E5,-1.4494567E5,4.2100012E5,9.8607055E4,6.796928E5,-1.0055874E4,2.5450054E3,-7.1262065E3,1.8679099E3,-2.6360903E3,9.633638E3,1.4841027E4,4.273956E4,-4.2424297E4,-5.453522E3,4.312324E4,1.0264963E5,1.0795974E4,5.170715E4,1.8433102E4,1.1681477E5],"categories":[],"categories_nodes":[],"categories_segments":[],"categories_sizes":[],"default_left":[0,0,0,0,0,0,0,0,0,0,0,0,0,0,0,0,0,0,0,0,0,0,0,0,0,0,0,0,0,0,0],"id":10,"left_children":[1,3,5,7,9,11,13,15,17,19,21,23,25,27,29,-1,-1,-1,-1,-1,-1,-1,-1,-1,-1,-1,-1,-1,-1,-1,-1],"loss_changes":[4.434097E13,1.6970557E13,1.2395246E13,6.7850553E12,6.8314936E12,1.3353443E13,3.9411778E12,1.8715152E12,6.880048E12,3.662203E12,1.8046129E12,7.0839986E11,1.1792068E13,3.1477109E12,5.6626826E11,0E0,0E0,0E0,0E0,0E0,0E0,0E0,0E0,0E0,0E0,0E0,0E0,0E0,0E0,0E0,0E0],"parents":[2147483647,0,0,1,1,2,2,3,3,4,4,5,5,6,6,7,7,8,8,9,9,10,10,11,11,12,12,13,13,14,14],"right_children":[2,4,6,8,10,12,14,16,18,20,22,24,26,28,30,-1,-1,-1,-1,-1,-1,-1,-1,-1,-1,-1,-1,-1,-1,-1,-1],"split_conditions":[3.73E3,2.59E3,-1.22188E2,4.75071E1,3E0,4.75275E1,1E0,3.668E4,1.52E3,4.75124E1,4.75446E1,4.7349E1,3.43E3,1.2E1,4.75685E1,-1.0055874E4,2.5450054E3,-7.1262065E3,1.8679099E3,-2.6360903E3,9.633638E3,1.4841027E4,4.273956E4,-4.2424297E4,-5.453522E3,4.312324E4,1.0264963E5,1.0795974E4,5.170715E4,1.8433102E4,1.1681477E5],"split_indices":[3,3,16,15,7,15,6,4,3,15,15,15,17,9,15,0,0,0,0,0,0,0,0,0,0,0,0,0,0,0,0],"split_type":[0,0,0,0,0,0,0,0,0,0,0,0,0,0,0,0,0,0,0,0,0,0,0,0,0,0,0,0,0,0,0],"sum_hessian":[1.5999E4,1.5118E4,8.81E2,1.2163E4,2.955E3,3.87E2,4.94E2,4.214E3,7.949E3,2.723E3,2.32E2,4.7E1,3.4E2,4.83E2,1.1E1,3.93E3,2.84E2,3.207E3,4.742E3,7.58E2,1.965E3,8.2E1,1.5E2,2E1,2.7E1,2.27E2,1.13E2,4.37E2,4.6E1,2E0,9E0],"tree_param":{"num_deleted":"0","num_feature":"19","num_nodes":"31","size_leaf_vector":"1"}},{"base_weights":[2.6665524E2,-1.648016E4,1.2628251E5,-3.955364E4,9.919554E3,2.7321897E5,5.1651582E4,-6.931839E4,-2.6427293E4,6.152575E3,2.59323E5,2.1408511E5,7.1622725E5,4.4262926E4,6.168882E5,-1.4524081E4,-8.868399E3,3.6520706E3,-5.6459756E3,-6.769063E3,3.4280398E3,2.5794943E4,6.5118348E4,-8.767476E3,4.0185035E4,9.7449414E4,3.1125497E5,2.3624559E4,3.0218948E3,2.333821E4,1.0075123E5],"categories":[],"categories_nodes":[],"categories_segments":[],"categories_sizes":[],"default_left":[0,0,0,0,0,0,0,0,0,0,0,0,0,0,0,0,0,0,0,0,0,0,0,0,0,0,0,0,0,0,0],"id":11,"left_children":[1,3,5,7,9,11,13,15,17,19,21,23,25,27,29,-1,-1,-1,-1,-1,-1,-1,-1,-1,-1,-1,-1,-1,-1,-1,-1],"loss_changes":[3.376791E13,8.6037915E12,2.0569077E13,2.9428925E12,6.1878137E12,1.6403034E13,5.176414E12,6.4104484E11,2.9795486E12,5.5600716E12,1.4217957E12,8.214234E12,5.3451036E12,3.358519E12,2.9986442E11,0E0,0E0,0E0,0E0,0E0,0E0,0E0,0E0,0E0,0E0,0E0,0E0,0E0,0E0,0E0,0E0],"parents":[2147483647,0,0,1,1,2,2,3,3,4,4,5,5,6,6,7,7,8,8,9,9,10,10,11,11,12,12,13,13,14,14],"right_children":[2,4,6,8,10,12,14,16,18,20,22,24,26,28,30,-1,-1,-1,-1,-1,-1,-1,-1,-1,-1,-1,-1,-1,-1,-1,-1],"split_conditions":[2.84E3,1.86E3,-1.22187E2,1.21E3,4E0,3.906E3,1E0,8.9E2,1.943E3,4.74496E1,4.75974E1,4.7526E1,7.5E0,9.8011E4,1.8E3,-1.4524081E4,-8.868399E3,3.6520706E3,-5.6459756E3,-6.769063E3,3.4280398E3,2.5794943E4,6.5118348E4,-8.767476E3,4.0185035E4,9.7449414E4,3.1125497E5,2.3624559E4,3.0218948E3,2.333821E4,1.0075123E5],"split_indices":[17,3,16,3,7,10,6,3,12,15,15,15,2,14,10,0,0,0,0,0,0,0,0,0,0,0,0,0,0,0,0],"split_type":[0,0,0,0,0,0,0,0,0,0,0,0,0,0,0,0,0,0,0,0,0,0,0,0,0,0,0,0,0,0,0],"sum_hessian":[1.5999E4,1.4123E4,1.876E3,7.536E3,6.587E3,6.31E2,1.245E3,2.305E3,5.231E3,6.49E3,9.7E1,5.58E2,7.3E1,1.23E3,1.5E1,6.21E2,1.684E3,9.46E2,4.285E3,1.594E3,4.896E3,6.6E1,3.1E1,9.2E1,4.66E2,7.1E1,2E0,2.15E2,1.015E3,2E0,1.3E1],"tree_param":{"num_deleted":"0","num_feature":"19","num_nodes":"31","size_leaf_vector":"1"}},{"base_weights":[2.6747034E2,-1.9537795E4,8.1419125E4,-4.4343477E4,-3.0527112E3,6.841395E4,3.91865E5,-7.310437E4,-3.472508E4,4.4216414E4,-1.8395414E4,2.3197923E5,4.8558727E4,3.509096E5,1.5532772E6,-5.548318E3,-1.189973E4,1.7220062E3,-7.096625E3,4.290102E3,2.1206668E4,-2.961398E3,3.1807162E4,2.9107135E4,8.800236E4,2.4577693E4,4.6599575E3,8.0459424E3,6.693395E4,4.5788984E4,2.801295E5],"categories":[],"categories_nodes":[],"categories_segments":[],"categories_sizes":[],"default_left":[0,0,0,0,0,0,0,0,0,0,0,0,0,0,0,0,0,0,0,0,0,0,0,0,0,0,0,0,0,0,0],"id":12,"left_children":[1,3,5,7,9,11,13,15,17,19,21,23,25,27,29,-1,-1,-1,-1,-1,-1,-1,-1,-1,-1,-1,-1,-1,-1,-1,-1],"loss_changes":[2.571727E13,5.2594417E12,1.2646598E13,1.4179767E12,5.605438E12,9.777077E12,5.448271E12,2.862838E11,2.239419E12,2.8696206E12,1.8157302E12,4.2723202E12,5.417915E12,3.4612487E12,9.9868895E11,0E0,0E0,0E0,0E0,0E0,0E0,0E0,0E0,0E0,0E0,0E0,0E0,0E0,0E0,0E0,0E0],"parents":[2147483647,0,0,1,1,2,2,3,3,4,4,5,5,6,6,7,7,8,8,9,9,10,10,11,11,12,12,13,13,14,14],"right_children":[2,4,6,8,10,12,14,16,18,20,22,24,26,28,30,-1,-1,-1,-1,-1,-1,-1,-1,-1,-1,-1,-1,-1,-1,-1,-1],"split_conditions":[9E0,1.59E3,5.24E3,7E0,1.955E3,1.96E3,7.5E0,-1.22366E2,1.944E3,2.34E3,4E0,3.77E3,9.8007E4,4.75412E1,1.2310008E9,-5.548318E3,-1.189973E4,1.7220062E3,-7.096625E3,4.290102E3,2.1206668E4,-2.961398E3,3.1807162E4,2.9107135E4,8.800236E4,2.4577693E4,4.6599575E3,8.0459424E3,6.693395E4,4.5788984E4,2.801295E5],"split_indices":[9,17,3,9,12,12,2,16,12,17,7,17,14,15,0,0,0,0,0,0,0,0,0,0,0,0,0,0,0,0,0],"split_type":[0,0,0,0,0,0,0,0,0,0,0,0,0,0,0,0,0,0,0,0,0,0,0,0,0,0,0,0,0,0,0],"sum_hessian":[1.5999E4,1.2861E4,3.138E3,5.134E3,7.727E3,3.013E3,1.25E2,1.285E3,3.849E3,1.893E3,5.834E3,3.25E2,2.688E3,1.22E2,3E0,1.9E2,1.095E3,8.24E2,3.025E3,1.632E3,2.61E2,5.801E3,3.3E1,2.95E2,3E1,3.53E2,2.335E3,3E1,9.2E1,1E0,2E0],"tree_param":{"num_deleted":"0","num_feature":"19","num_nodes":"31","size_leaf_vector":"1"}},{"base_weights":[2.6352145E2,-8.340039E3,1.4774308E5,-1.5425567E4,6.974258E4,4.6936434E5,1.20298836E5,-3.4626465E4,4.647284E3,5.5953785E4,2.438924E5,1.28733664E5,6.368811E5,9.168074E4,4.329079E5,-7.3484946E3,-1.4060225E3,5.407544E3,-6.5433716E3,2.4454556E3,1.5712029E4,1.5826715E4,5.5281527E4,-1.8144E4,3.2802734E4,1.1802719E5,2.935044E4,-2.2073297E4,1.6913098E4,1.02176E5,2.4691205E4],"categories":[],"categories_nodes":[],"categories_segments":[],"categories_sizes":[],"default_left":[0,0,0,0,0,0,0,0,0,0,0,0,0,0,0,0,0,0,0,0,0,0,0,0,0,0,0,0,0,0,0],"id":13,"left_children":[1,3,5,7,9,11,13,15,17,19,21,23,25,27,29,-1,-1,-1,-1,-1,-1,-1,-1,-1,-1,-1,-1,-1,-1,-1,-1],"loss_changes":[2.030282E13,8.3657627E12,7.7286406E12,5.342808E12,3.0072106E12,3.855246E12,7.2425794E12,2.569419E12,1.0275771E13,2.2560663E12,1.5480536E12,5.654982E11,2.8897224E12,3.7762808E12,4.4173235E12,0E0,0E0,0E0,0E0,0E0,0E0,0E0,0E0,0E0,0E0,0E0,0E0,0E0,0E0,0E0,0E0],"parents":[2147483647,0,0,1,1,2,2,3,3,4,4,5,5,6,6,7,7,8,8,9,9,10,10,11,11,12,12,13,13,14,14],"right_children":[2,4,6,8,10,12,14,16,18,20,22,24,26,28,30,-1,-1,-1,-1,-1,-1,-1,-1,-1,-1,-1,-1,-1,-1,-1,-1],"split_conditions":[3.73E3,1E0,1.941E3,4.7574E1,1E0,7.173E3,4E0,-1.22163E2,4.76959E1,4.75834E1,4.75031E1,4E0,9.8144E4,4.74034E1,9.8042E4,-7.3484946E3,-1.4060225E3,5.407544E3,-6.5433716E3,2.4454556E3,1.5712029E4,1.5826715E4,5.5281527E4,-1.8144E4,3.2802734E4,1.1802719E5,2.935044E4,-2.2073297E4,1.6913098E4,1.02176E5,2.4691205E4],"split_indices":[3,7,12,15,6,4,7,16,15,15,15,8,14,15,14,0,0,0,0,0,0,0,0,0,0,0,0,0,0,0,0],"split_type":[0,0,0,0,0,0,0,0,0,0,0,0,0,0,0,0,0,0,0,0,0,0,0,0,0,0,0,0,0,0,0],"sum_hessian":[1.5999E4,1.5118E4,8.81E2,1.3861E4,1.257E3,6.8E1,8.13E2,7.084E3,6.777E3,1.166E3,9.1E1,2.3E1,4.5E1,7.46E2,6.7E1,4.515E3,2.569E3,4.106E3,2.671E3,6.44E2,5.22E2,4.4E1,4.7E1,6E0,1.7E1,3.3E1,1.2E1,6E1,6.86E2,3.4E1,3.3E1],"tree_param":{"num_deleted":"0","num_feature":"19","num_nodes":"31","size_leaf_vector":"1"}},{"base_weights":[2.466887E2,-8.836842E3,1.1118407E5,-2.9879338E4,9.016987E3,1.0041186E5,6.397755E5,-5.751153E4,-2.1445324E4,5.5116797E4,-4.893904E3,3.503081E5,8.229454E4,9.196213E5,1.5602922E5,-1.6343395E4,-7.7259033E3,-1.7435365E2,-5.060053E3,3.1679778E3,2.1388559E4,-5.7188687E3,1.01639056E3,3.3222742E4,9.3728945E4,9.613827E3,4.554656E4,2.0319738E5,3.433881E4,5.093333E4,-5.7807582E4],"categories":[],"categories_nodes":[],"categories_segments":[],"categories_sizes":[],"default_left":[0,0,0,0,0,0,0,0,0,0,0,0,0,0,0,0,0,0,0,0,0,0,0,0,0,0,0,0,0,0,0],"id":14,"left_children":[1,3,5,7,9,11,13,15,17,19,21,23,25,27,29,-1,-1,-1,-1,-1,-1,-1,-1,-1,-1,-1,-1,-1,-1,-1,-1],"loss_changes":[1.6124231E13,5.556711E12,6.831307E12,1.5809454E12,5.131868E12,5.3497834E12,3.1054973E12,4.846922E11,1.2967797E12,5.513452E12,2.3845195E12,2.6910906E12,4.448786E12,4.1969642E12,1.1244945E12,0E0,0E0,0E0,0E0,0E0,0E0,0E0,0E0,0E0,0E0,0E0,0E0,0E0,0E0,0E0,0E0],"parents":[2147483647,0,0,1,1,2,2,3,3,4,4,5,5,6,6,7,7,8,8,9,9,10,10,11,11,12,12,13,13,14,14],"right_children":[2,4,6,8,10,12,14,16,18,20,22,24,26,28,30,-1,-1,-1,-1,-1,-1,-1,-1,-1,-1,-1,-1,-1,-1,-1,-1],"split_conditions":[1E1,1.44E3,5.5E0,1.09E3,1.96E3,1.941E3,4.0588E4,2.691E3,1.956E3,2.19E3,4.73992E1,7.732E3,4E0,2.004E3,9.8092E4,-1.6343395E4,-7.7259033E3,-1.7435365E2,-5.060053E3,3.1679778E3,2.1388559E4,-5.7188687E3,1.01639056E3,3.3222742E4,9.3728945E4,9.613827E3,4.554656E4,2.0319738E5,3.433881E4,5.093333E4,-5.7807582E4],"split_indices":[9,10,2,3,12,12,4,4,12,17,15,18,7,12,14,0,0,0,0,0,0,0,0,0,0,0,0,0,0,0,0],"split_type":[0,0,0,0,0,0,0,0,0,0,0,0,0,0,0,0,0,0,0,0,0,0,0,0,0,0,0,0,0,0,0],"sum_hessian":[1.5999E4,1.4789E4,1.21E3,6.788E3,8.001E3,1.187E3,2.3E1,1.586E3,5.202E3,1.854E3,6.147E3,7.9E1,1.108E3,1.4E1,9E0,1.64E2,1.422E3,1.963E3,3.239E3,1.336E3,5.18E2,1.597E3,4.55E3,5.5E1,2.4E1,1.025E3,8.3E1,8E0,6E0,7E0,2E0],"tree_param":{"num_deleted":"0","num_feature":"19","num_nodes":"31","size_leaf_vector":"1"}},{"base_weights":[2.3489941E2,-9.220639E3,8.3771266E4,-3.0074253E3,-5.651594E4,2.0116081E5,2.7031525E4,-2.2072637E4,3.4163355E4,-5.303226E4,-1.8105956E5,1.7677572E5,8.141418E5,2.1396084E4,4.324839E5,-4.7831875E3,1.00827386E3,8.577157E3,-3.9187358E3,-8.603013E3,8.780886E2,-3.4339906E4,-6.8411714E3,-1.228775E4,3.3011766E4,-2.1641166E4,1.4876412E5,1.8558987E3,2.7120611E4,-1.7246376E3,7.5250984E4],"categories":[],"categories_nodes":[],"categories_segments":[],"categories_sizes":[],"default_left":[0,0,0,0,0,0,0,0,0,0,0,0,0,0,0,0,0,0,0,0,0,0,0,0,0,0,0,0,0,0,0],"id":15,"left_children":[1,3,5,7,9,11,13,15,17,19,21,23,25,27,29,-1,-1,-1,-1,-1,-1,-1,-1,-1,-1,-1,-1,-1,-1,-1,-1],"loss_changes":[1.2638872E13,4.2237131E12,1.0831442E13,9.005099E12,7.14528E11,7.7783074E12,2.4995698E12,2.3739879E12,5.9796897E12,4.138268E11,2.8136125E11,5.742327E12,3.5477436E12,1.5569952E12,4.665492E11,0E0,0E0,0E0,0E0,0E0,0E0,0E0,0E0,0E0,0E0,0E0,0E0,0E0,0E0,0E0,0E0],"parents":[2147483647,0,0,1,1,2,2,3,3,4,4,5,5,6,6,7,7,8,8,9,9,10,10,11,11,12,12,13,13,14,14],"right_children":[2,4,6,8,10,12,14,16,18,20,22,24,26,28,30,-1,-1,-1,-1,-1,-1,-1,-1,-1,-1,-1,-1,-1,-1,-1,-1],"split_conditions":[2.912E3,4.77232E1,-1.22187E2,4.76119E1,3.38E3,5E3,1E0,9.827E3,-1.22185E2,3.5E4,3.668E4,4.7526E1,-1.22347E2,4.59E3,4.75707E1,-4.7831875E3,1.00827386E3,8.577157E3,-3.9187358E3,-8.603013E3,8.780886E2,-3.4339906E4,-6.8411714E3,-1.228775E4,3.3011766E4,-2.1641166E4,1.4876412E5,1.8558987E3,2.7120611E4,-1.7246376E3,7.5250984E4],"split_indices":[17,15,16,15,3,10,6,18,16,4,4,15,16,17,15,0,0,0,0,0,0,0,0,0,0,0,0,0,0,0,0],"split_type":[0,0,0,0,0,0,0,0,0,0,0,0,0,0,0,0,0,0,0,0,0,0,0,0,0,0,0,0,0,0,0],"sum_hessian":[1.5999E4,1.4373E4,1.626E3,1.2705E4,1.668E3,5.29E2,1.097E3,8.398E3,4.307E3,1.624E3,4.4E1,5.1E2,1.9E1,1.083E3,1.4E1,6.263E3,2.135E3,3.117E3,1.19E3,1.513E3,1.11E2,3.2E1,1.2E1,7.3E1,4.37E2,3E0,1.6E1,1.026E3,5.7E1,2E0,1.2E1],"tree_param":{"num_deleted":"0","num_feature":"19","num_nodes":"31","size_leaf_vector":"1"}},{"base_weights":[2.1230927E2,-1.2811809E4,4.999672E4,-3.8672156E4,-5.0354185E3,6.6840664E4,-6.7023086E4,-7.011195E4,-3.2565518E4,-3.5953617E4,3.5991406E3,2.4594852E4,1.4484069E5,-1.0419775E5,9.03E1,-1.3755874E4,-8.220079E3,-7.2482715E3,-2.9573271E3,-5.9197637E3,4.615832E3,2.7787492E4,1.5199733E2,2.4251162E3,4.9050555E4,3.781685E4,2.775722E3,-1.3950342E4,-5.043261E4,-1.686606E3,2.6836643E4],"categories":[],"categories_nodes":[],"categories_segments":[],"categories_sizes":[],"default_left":[0,0,0,0,0,0,0,0,0,0,0,0,0,0,0,0,0,0,0,0,0,0,0,0,0,0,0,0,0,0,0],"id":16,"left_children":[1,3,5,7,9,11,13,15,17,19,21,23,25,27,29,-1,-1,-1,-1,-1,-1,-1,-1,-1,-1,-1,-1,-1,-1,-1,-1],"loss_changes":[1.0375009E13,2.5503586E12,6.544507E12,5.6063584E11,2.6035723E12,9.555737E12,1.0428851E12,1.5235573E11,4.9651227E11,5.0005174E11,3.5809363E12,4.793583E12,1.3805088E13,6.674776E11,3.0603375E11,0E0,0E0,0E0,0E0,0E0,0E0,0E0,0E0,0E0,0E0,0E0,0E0,0E0,0E0,0E0,0E0],"parents":[2147483647,0,0,1,1,2,2,3,3,4,4,5,5,6,6,7,7,8,8,9,9,10,10,11,11,12,12,13,13,14,14],"right_children":[2,4,6,8,10,12,14,16,18,20,22,24,26,28,30,-1,-1,-1,-1,-1,-1,-1,-1,-1,-1,-1,-1,-1,-1,-1,-1],"split_conditions":[2.71E3,1.29E3,4.77103E1,3.135E3,4.74157E1,4.76144E1,2.6487E4,4.76119E1,7E0,5.2476E4,9.8005E4,1E0,-1.22197E2,4.42E3,4.25E0,-1.3755874E4,-8.220079E3,-7.2482715E3,-2.9573271E3,-5.9197637E3,4.615832E3,2.7787492E4,1.5199733E2,2.4251162E3,4.9050555E4,3.781685E4,2.775722E3,-1.3950342E4,-5.043261E4,-1.686606E3,2.6836643E4],"split_indices":[3,3,15,4,15,15,4,15,9,4,14,6,16,3,2,0,0,0,0,0,0,0,0,0,0,0,0,0,0,0,0],"split_type":[0,0,0,0,0,0,0,0,0,0,0,0,0,0,0,0,0,0,0,0,0,0,0,0,0,0,0,0,0,0,0],"sum_hessian":[1.5999E4,1.2682E4,3.317E3,2.931E3,9.751E3,2.9E3,4.17E2,4.75E2,2.456E3,2.128E3,7.623E3,1.882E3,1.018E3,2.68E2,1.49E2,1.95E2,2.8E2,1.102E3,1.354E3,2.022E3,1.06E2,1.06E2,7.517E3,1.832E3,5E1,5.5E2,4.68E2,2.57E2,1.1E1,1.41E2,8E0],"tree_param":{"num_deleted":"0","num_feature":"19","num_nodes":"31","size_leaf_vector":"1"}},{"base_weights":[1.834123E2,-3.4957317E3,1.5183355E5,-9.112401E3,5.316775E4,1.4107217E5,1.125445E6,-4.4837417E3,-5.1274133E4,4.0697766E4,2.0925073E5,1.1877162E5,5.78007E5,3.4440734E4,2.0212853E5,-2.9582957E3,3.4196025E3,-8.749256E3,5.361221E1,1.372661E3,1.125846E4,1.342112E4,4.9096004E4,-4.3601516E4,1.9882387E4,9.676708E4,-4.2210688E4],"categories":[],"categories_nodes":[],"categories_segments":[],"categories_sizes":[],"default_left":[0,0,0,0,0,0,0,0,0,0,0,0,0,0,0,0,0,0,0,0,0,0,0,0,0,0,0],"id":17,"left_children":[1,3,5,7,9,11,13,15,17,19,21,23,25,-1,-1,-1,-1,-1,-1,-1,-1,-1,-1,-1,-1,-1,-1],"loss_changes":[8.927614E12,4.972343E12,3.8121673E12,2.7736654E12,2.7338937E12,3.5950496E12,4.8638932E11,5.32535E12,5.1211587E11,1.4148884E12,1.4413102E12,2.0637276E12,1.2196412E12,0E0,0E0,0E0,0E0,0E0,0E0,0E0,0E0,0E0,0E0,0E0,0E0,0E0,0E0],"parents":[2147483647,0,0,1,1,2,2,3,3,4,4,5,5,6,6,7,7,8,8,9,9,10,10,11,11,12,12],"right_children":[2,4,6,8,10,12,14,16,18,20,22,24,26,-1,-1,-1,-1,-1,-1,-1,-1,-1,-1,-1,-1,-1,-1],"split_conditions":[1.1E1,1E0,7.5E0,4.77306E1,1E0,2.009E3,1.2310008E9,4.76119E1,2.8027E4,4.7574E1,4.752E1,4.74034E1,4.76557E1,3.4440734E4,2.0212853E5,-2.9582957E3,3.4196025E3,-8.749256E3,5.361221E1,1.372661E3,1.125846E4,1.342112E4,4.9096004E4,-4.3601516E4,1.9882387E4,9.676708E4,-4.2210688E4],"split_indices":[9,7,2,15,6,12,0,15,18,15,15,15,15,0,0,0,0,0,0,0,0,0,0,0,0,0,0],"split_type":[0,0,0,0,0,0,0,0,0,0,0,0,0,0,0,0,0,0,0,0,0,0,0,0,0,0,0],"sum_hessian":[1.5999E4,1.5621E4,3.78E2,1.4213E4,1.408E3,3.75E2,3E0,1.2808E4,1.405E3,1.305E3,1.03E2,3.58E2,1.7E1,1E0,2E0,8.218E3,4.59E3,1.236E3,1.69E2,6.81E2,6.24E2,5.2E1,5.1E1,1.1E1,3.47E2,1.6E1,1E0],"tree_param":{"num_deleted":"0","num_feature":"19","num_nodes":"27","size_leaf_vector":"1"}},{"base_weights":[1.7678873E2,-2.1147664E3,1.8985903E5,-1.56095625E4,2.077658E4,3.0667928E5,6.081681E4,-2.7517188E4,1.4775886E3,5.2542086E4,-4.2137692E2,-1.3933644E5,3.633704E5,6.7128656E5,1.8016402E4,-4.4208486E3,6.28457E3,-5.6636157E3,1.8201465E3,-1.317784E3,1.4855698E4,-2.5044283E2,3.8511188E4,-3.8228457E4,-3.062124E3,1.0966208E5,4.448556E4,2.3329904E4,1.7027944E5,-4.9688223E4,5.8259663E3],"categories":[],"categories_nodes":[],"categories_segments":[],"categories_sizes":[],"default_left":[0,0,0,0,0,0,0,0,0,0,0,0,0,0,0,0,0,0,0,0,0,0,0,0,0,0,0,0,0,0,0],"id":18,"left_children":[1,3,5,7,9,11,13,15,17,19,21,23,25,27,29,-1,-1,-1,-1,-1,-1,-1,-1,-1,-1,-1,-1,-1,-1,-1,-1],"loss_changes":[6.9550777E12,4.884256E12,2.860625E12,2.0239305E12,3.948627E12,2.5791436E12,2.3917146E12,7.9679246E11,1.708883E12,6.693267E12,1.1297106E12,1.5965204E11,1.9692939E12,1.2590192E12,6.456172E11,0E0,0E0,0E0,0E0,0E0,0E0,0E0,0E0,0E0,0E0,0E0,0E0,0E0,0E0,0E0,0E0],"parents":[2147483647,0,0,1,1,2,2,3,3,4,4,5,5,6,6,7,7,8,8,9,9,10,10,11,11,12,12,13,13,14,14],"right_children":[2,4,6,8,10,12,14,16,18,20,22,24,26,28,30,-1,-1,-1,-1,-1,-1,-1,-1,-1,-1,-1,-1,-1,-1,-1,-1],"split_conditions":[4.29E3,1.82E3,9.8052E4,4E0,-1.22192E2,4.73651E1,1.912E3,2.002E3,4.74157E1,4.75707E1,1E0,-1.22321E2,-1.22225E2,4.5E0,-1.22371E2,-4.4208486E3,6.28457E3,-5.6636157E3,1.8201465E3,-1.317784E3,1.4855698E4,-2.5044283E2,3.8511188E4,-3.8228457E4,-3.062124E3,1.0966208E5,4.448556E4,2.3329904E4,1.7027944E5,-4.9688223E4,5.8259663E3],"split_indices":[10,10,14,8,16,15,12,13,15,15,6,16,16,2,16,0,0,0,0,0,0,0,0,0,0,0,0,0,0,0,0],"split_type":[0,0,0,0,0,0,0,0,0,0,0,0,0,0,0,0,0,0,0,0,0,0,0,0,0,0,0,0,0,0,0],"sum_hessian":[1.5999E4,1.5809E4,1.9E2,9.946E3,5.863E3,9.9E1,9.1E1,5.861E3,4.085E3,2.346E3,3.517E3,1.1E1,8.8E1,5E0,8.6E1,5.701E3,1.6E2,8.72E2,3.213E3,1.012E3,1.334E3,3.501E3,1.6E1,5E0,6E0,1.2E1,7.6E1,3E0,2E0,4E0,8.2E1],"tree_param":{"num_deleted":"0","num_feature":"19","num_nodes":"31","size_leaf_vector":"1"}},{"base_weights":[1.6979681E2,-3.7104421E3,9.40652E4,2.3531477E3,-3.9039777E4,2.6343506E5,3.5499977E4,-1.138583E4,3.1809715E4,-3.5799824E4,-1.2884256E5,9.054503E3,3.5741566E5,2.7401314E4,3.7315275E5,-3.4109602E3,9.289753E2,3.821861E4,3.839364E3,-9.58582E3,-4.1761294E3,-2.478299E4,-2.2630867E3,-7.7964355E3,7.615435E4,6.4756676E4,-8.450234E3,9.197678E3,-4.877924E3,2.1483871E4,9.306299E4],"categories":[],"categories_nodes":[],"categories_segments":[],"categories_sizes":[],"default_left":[0,0,0,0,0,0,0,0,0,0,0,0,0,0,0,0,0,0,0,0,0,0,0,0,0,0,0,0,0,0,0],"id":19,"left_children":[1,3,5,7,9,11,13,15,17,19,21,23,25,27,29,-1,-1,-1,-1,-1,-1,-1,-1,-1,-1,-1,-1,-1,-1,-1,-1],"loss_changes":[5.829735E12,3.2918363E12,6.2893305E12,5.308448E12,6.503313E11,3.8935776E12,1.2832106E12,1.7854758E12,5.7741767E12,4.845268E11,3.2028033E11,1.3958477E12,3.6823577E12,9.429518E11,5.3652724E11,0E0,0E0,0E0,0E0,0E0,0E0,0E0,0E0,0E0,0E0,0E0,0E0,0E0,0E0,0E0,0E0],"parents":[2147483647,0,0,1,1,2,2,3,3,4,4,5,5,6,6,7,7,8,8,9,9,10,10,11,11,12,12,13,13,14,14],"right_children":[2,4,6,8,10,12,14,16,18,20,22,24,26,28,30,-1,-1,-1,-1,-1,-1,-1,-1,-1,-1,-1,-1,-1,-1,-1,-1],"split_conditions":[3.43E3,4.77103E1,-1.22213E2,4.76119E1,3.49E3,4.7561E1,1E0,2.01E3,9.8005E4,9.8034E4,3.668E4,3.5E4,4.76704E1,9.8065E4,2.85E3,-3.4109602E3,9.289753E2,3.821861E4,3.839364E3,-9.58582E3,-4.1761294E3,-2.478299E4,-2.2630867E3,-7.7964355E3,7.615435E4,6.4756676E4,-8.450234E3,9.197678E3,-4.877924E3,2.1483871E4,9.306299E4],"split_indices":[17,15,16,15,3,15,6,17,14,14,4,4,15,14,10,0,0,0,0,0,0,0,0,0,0,0,0,0,0,0,0],"split_type":[0,0,0,0,0,0,0,0,0,0,0,0,0,0,0,0,0,0,0,0,0,0,0,0,0,0,0,0,0,0,0],"sum_hessian":[1.5999E4,1.5365E4,6.34E2,1.3115E4,2.25E3,1.62E2,4.72E2,8.944E3,4.171E3,2.173E3,7.7E1,4.4E1,1.18E2,4.62E2,1E1,5.434E3,3.51E3,1.12E2,4.059E3,4.78E2,1.695E3,5.8E1,1.9E1,4E1,4E0,1E2,1.8E1,2.95E2,1.67E2,6E0,4E0],"tree_param":{"num_deleted":"0","num_feature":"19","num_nodes":"31","size_leaf_vector":"1"}},{"base_weights":[1.5946704E2,-2.0536235E3,1.4488208E5,-6.6329404E3,4.8129324E4,1.2650329E5,5.176654E5,-1.5417609E4,9.154892E3,6.867836E4,-7.1282E4,1.4386255E5,-7.4761164E4,-2.7035926E4,6.054799E5,-2.6210046E3,9.671827E3,-3.7416333E2,8.768626E3,2.284238E3,2.4549477E4,-1.6546355E4,-1.1832488E3,1.3555285E4,4.0469215E4,-1.548853E4,1.6745227E4,3.690949E4,1.08654555E5],"categories":[],"categories_nodes":[],"categories_segments":[],"categories_sizes":[],"default_left":[0,0,0,0,0,0,0,0,0,0,0,0,0,0,0,0,0,0,0,0,0,0,0,0,0,0,0,0,0],"id":20,"left_children":[1,3,5,7,9,11,13,15,17,19,21,23,25,-1,27,-1,-1,-1,-1,-1,-1,-1,-1,-1,-1,-1,-1,-1,-1],"loss_changes":[5.124845E12,3.6220245E12,1.5856781E12,2.0032535E12,3.2389878E12,8.1782374E11,7.832789E11,1.5253425E12,2.9660459E12,5.709075E12,4.7909877E11,1.4105182E12,1.1244525E11,0E0,2.4904886E11,0E0,0E0,0E0,0E0,0E0,0E0,0E0,0E0,0E0,0E0,0E0,0E0,0E0,0E0],"parents":[2147483647,0,0,1,1,2,2,3,3,4,4,5,5,6,6,7,7,8,8,9,9,10,10,11,11,12,12,14,14],"right_children":[2,4,6,8,10,12,14,16,18,20,22,24,26,-1,28,-1,-1,-1,-1,-1,-1,-1,-1,-1,-1,-1,-1,-1,-1],"split_conditions":[4E0,3.25E0,5E0,4E0,4.76904E1,4.77347E1,1.966E3,2.002E3,2.28E3,4.76144E1,-1.2216E2,4.75974E1,3.71E3,-2.7035926E4,1.9E4,-2.6210046E3,9.671827E3,-3.7416333E2,8.768626E3,2.284238E3,2.4549477E4,-1.6546355E4,-1.1832488E3,1.3555285E4,4.0469215E4,-1.548853E4,1.6745227E4,3.690949E4,1.08654555E5],"split_indices":[7,2,2,8,15,15,12,13,17,15,16,15,17,0,4,0,0,0,0,0,0,0,0,0,0,0,0,0,0],"split_type":[0,0,0,0,0,0,0,0,0,0,0,0,0,0,0,0,0,0,0,0,0,0,0,0,0,0,0,0,0],"sum_hessian":[1.5999E4,1.5759E4,2.4E2,1.4442E4,1.317E3,2.3E2,1E1,9.279E3,5.163E3,1.124E3,1.93E2,2.12E2,1.8E1,1E0,9E0,9.047E3,2.32E2,4.177E3,9.86E2,7.2E2,4.04E2,1.19E2,7.4E1,1.5E2,6.2E1,1.6E1,2E0,3E0,6E0],"tree_param":{"num_deleted":"0","num_feature":"19","num_nodes":"29","size_leaf_vector":"1"}},{"base_weights":[1.4794124E2,-3.0269746E3,7.904359E4,-1.1185628E4,1.7011988E4,7.272685E4,7.1228256E5,-2.1882389E4,-1.1302811E3,8.524405E4,8.80063E3,4.983441E4,1.685304E5,9.214277E5,-2.5008227E4,9.1041644E2,-3.7841597E3,6.201994E3,-1.055266E3,9.8437415E2,3.2147266E4,7.171269E3,-8.30017E2,9.241587E3,-1.2937292E4,1.0460517E4,4.3256492E4,4.128934E4,1.5212303E5],"categories":[],"categories_nodes":[],"categories_segments":[],"categories_sizes":[],"default_left":[0,0,0,0,0,0,0,0,0,0,0,0,0,0,0,0,0,0,0,0,0,0,0,0,0,0,0,0,0],"id":21,"left_children":[1,3,5,7,9,11,13,15,17,19,21,23,25,27,-1,-1,-1,-1,-1,-1,-1,-1,-1,-1,-1,-1,-1,-1,-1],"loss_changes":[4.0080323E12,2.5150077E12,2.424201E12,1.1758176E12,2.4930466E12,1.3382126E12,1.2566578E12,4.9546684E11,1.4139051E12,4.852927E12,2.2222917E12,8.0177476E11,1.3770144E12,2.0423115E10,0E0,0E0,0E0,0E0,0E0,0E0,0E0,0E0,0E0,0E0,0E0,0E0,0E0,0E0,0E0],"parents":[2147483647,0,0,1,1,2,2,3,3,4,4,5,5,6,6,7,7,8,8,9,9,10,10,11,11,12,12,13,13],"right_children":[2,4,6,8,10,12,14,16,18,20,22,24,26,28,-1,-1,-1,-1,-1,-1,-1,-1,-1,-1,-1,-1,-1,-1,-1],"split_conditions":[3E0,2.05E3,1.3E1,1.62E3,9.8007E4,1E0,3.543E4,-1.22376E2,1.93E3,4.75671E1,-1.22217E2,4.77082E1,-1.22255E2,1.9E4,-2.5008227E4,9.1041644E2,-3.7841597E3,6.201994E3,-1.055266E3,9.8437415E2,3.2147266E4,7.171269E3,-8.30017E2,9.241587E3,-1.2937292E4,1.0460517E4,4.3256492E4,4.128934E4,1.5212303E5],"split_indices":[7,10,9,17,14,6,4,16,12,15,16,15,16,4,0,0,0,0,0,0,0,0,0,0,0,0,0,0,0],"split_type":[0,0,0,0,0,0,0,0,0,0,0,0,0,0,0,0,0,0,0,0,0,0,0,0,0,0,0,0,0],"sum_hessian":[1.5999E4,1.5381E4,6.18E2,1.0931E4,4.45E3,6.13E2,5E0,5.296E3,5.635E3,4.77E2,3.973E3,4.96E2,1.17E2,4E0,1E0,5.66E2,4.73E3,6.87E2,4.948E3,2.97E2,1.8E2,1.067E3,2.906E3,4.57E2,3.9E1,6.5E1,5.2E1,1E0,3E0],"tree_param":{"num_deleted":"0","num_feature":"19","num_nodes":"29","size_leaf_vector":"1"}},{"base_weights":[1.4201161E2,-1.4452256E3,1.3152461E5,2.8226794E3,-3.468616E4,6.562447E4,2.81509E5,-8.1042173E3,2.3768344E4,-3.1967746E4,-1.748635E5,1.792657E5,-2.34605E4,-3.0103894E5,3.1875778E5,-1.4083527E3,1.8109967E4,3.0692682E4,2.7922393E3,-5.626242E3,1.5257666E3,-1.8977174E4,-4.173746E4,1.8779125E4,7.62484E4,1.9518293E3,-3.2859887E4,-2.809261E3,-5.833495E4,2.1236852E4,7.090886E4],"categories":[],"categories_nodes":[],"categories_segments":[],"categories_sizes":[],"default_left":[0,0,0,0,0,0,0,0,0,0,0,0,0,0,0,0,0,0,0,0,0,0,0,0,0,0,0,0,0,0,0],"id":22,"left_children":[1,3,5,7,9,11,13,15,17,19,21,23,25,27,29,-1,-1,-1,-1,-1,-1,-1,-1,-1,-1,-1,-1,-1,-1,-1,-1],"loss_changes":[3.3367557E12,2.243049E12,1.869369E12,3.2071347E12,6.799365E11,1.360785E12,1.3545122E12,1.5255013E12,4.473484E12,4.1269933E11,1.347506E11,9.861253E11,5.4505397E11,9.1932525E10,1.4334637E12,0E0,0E0,0E0,0E0,0E0,0E0,0E0,0E0,0E0,0E0,0E0,0E0,0E0,0E0,0E0,0E0],"parents":[2147483647,0,0,1,1,2,2,3,3,4,4,5,5,6,6,7,7,8,8,9,9,10,10,11,11,12,12,13,13,14,14],"right_children":[2,4,6,8,10,12,14,16,18,20,22,24,26,28,30,-1,-1,-1,-1,-1,-1,-1,-1,-1,-1,-1,-1,-1,-1,-1,-1],"split_conditions":[4.29E3,4.77232E1,7E1,4.76119E1,3.96E3,9.804E4,4.74662E1,1E0,9.8005E4,2.8176E4,4.42E3,9.8039E4,9.8092E4,5.3700045E8,4.5E0,-1.4083527E3,1.8109967E4,3.0692682E4,2.7922393E3,-5.626242E3,1.5257666E3,-1.8977174E4,-4.173746E4,1.8779125E4,7.62484E4,1.9518293E3,-3.2859887E4,-2.809261E3,-5.833495E4,2.1236852E4,7.090886E4],"split_indices":[10,15,11,15,3,14,15,6,14,4,3,14,14,0,2,0,0,0,0,0,0,0,0,0,0,0,0,0,0,0,0],"split_type":[0,0,0,0,0,0,0,0,0,0,0,0,0,0,0,0,0,0,0,0,0,0,0,0,0,0,0,0,0,0,0],"sum_hessian":[1.5999E4,1.5809E4,1.9E2,1.4011E4,1.798E3,1.33E2,5.7E1,9.208E3,4.803E3,1.765E3,3.3E1,5.8E1,7.5E1,3E0,5.4E1,9.118E3,9E1,1.32E2,4.671E3,1.56E3,2.05E2,2.4E1,9E0,5.1E1,7E0,6.4E1,1.1E1,1E0,2E0,2.6E1,2.8E1],"tree_param":{"num_deleted":"0","num_feature":"19","num_nodes":"31","size_leaf_vector":"1"}},{"base_weights":[1.25739365E2,-2.4053025E3,6.8027875E4,-5.803888E3,3.5743168E4,1.6418545E5,2.3437242E4,-7.7414385E3,4.5359426E4,1.7193686E4,1.1548046E5,-1.3956927E5,2.1344302E5,7.4784287E3,1.2166559E5,-1.5029753E3,4.702049E3,4.392284E3,3.3973723E4,-3.4958962E3,4.0743577E3,1.4555468E4,5.0327465E4,-5.352777E2,-4.1294332E4,4.5137027E4,6.154308E3,3.6544524E3,-1.3993883E4,2.1277861E4,-1.6285966E4],"categories":[],"categories_nodes":[],"categories_segments":[],"categories_sizes":[],"default_left":[0,0,0,0,0,0,0,0,0,0,0,0,0,0,0,0,0,0,0,0,0,0,0,0,0,0,0,0,0,0,0],"id":23,"left_children":[1,3,5,7,9,11,13,15,17,19,21,23,25,27,29,-1,-1,-1,-1,-1,-1,-1,-1,-1,-1,-1,-1,-1,-1,-1,-1],"loss_changes":[2.7499742E12,2.0002013E12,2.461595E12,1.4045491E12,1.8646202E12,2.7529136E12,6.167276E11,1.2158794E12,1.4989528E12,4.1445514E11,9.333291E11,4.789483E11,2.3553963E12,5.8077485E11,2.710297E11,0E0,0E0,0E0,0E0,0E0,0E0,0E0,0E0,0E0,0E0,0E0,0E0,0E0,0E0,0E0,0E0],"parents":[2147483647,0,0,1,1,2,2,3,3,4,4,5,5,6,6,7,7,8,8,9,9,10,10,11,11,12,12,13,13,14,14],"right_children":[2,4,6,8,10,12,14,16,18,20,22,24,26,28,30,-1,-1,-1,-1,-1,-1,-1,-1,-1,-1,-1,-1,-1,-1,-1,-1],"split_conditions":[3.61E3,5E0,-1.22184E2,1.982E3,2.25E3,4.75317E1,1.089E5,2.011E3,3E3,4.74514E1,3.71E3,4.23E3,4.76415E1,-1.21986E2,1.11E3,-1.5029753E3,4.702049E3,4.392284E3,3.3973723E4,-3.4958962E3,4.0743577E3,1.4555468E4,5.0327465E4,-5.352777E2,-4.1294332E4,4.5137027E4,6.154308E3,3.6544524E3,-1.3993883E4,2.1277861E4,-1.6285966E4],"split_indices":[10,8,16,13,17,15,4,12,17,15,17,3,15,16,11,0,0,0,0,0,0,0,0,0,0,0,0,0,0,0,0],"split_type":[0,0,0,0,0,0,0,0,0,0,0,0,0,0,0,0,0,0,0,0,0,0,0,0,0,0,0,0,0,0,0],"sum_hessian":[1.5999E4,1.5425E4,5.74E2,1.4164E4,1.261E3,1.81E2,3.93E2,1.3648E4,5.16E2,1.024E3,2.37E2,2.5E1,1.56E2,3.39E2,5.4E1,1.2897E4,7.51E2,4.75E2,4.1E1,2.02E2,8.22E2,2.2E2,1.7E1,1.3E1,1.2E1,1.03E2,5.3E1,2.91E2,4.8E1,5E1,4E0],"tree_param":{"num_deleted":"0","num_feature":"19","num_nodes":"31","size_leaf_vector":"1"}},{"base_weights":[1.13827324E2,-2.3101829E3,6.0349707E4,3.0999773E3,-2.261763E4,5.6103773E4,6.991359E5,-7.980421E3,3.4201207E4,-1.9744234E4,-1.0113519E5,-7.658065E4,6.821614E4,1.7791979E4,1.2796586E5,-1.617515E3,9.147066E3,9.269883E3,-7.274621E3,-4.5153086E3,-2.3255971E2,-1.216475E4,-3.0523947E4,-1.8250814E4,1.2209757E3,7.133986E4,9.337991E3],"categories":[],"categories_nodes":[],"categories_segments":[],"categories_sizes":[],"default_left":[0,0,0,0,0,0,0,0,0,0,0,0,0,0,0,0,0,0,0,0,0,0,0,0,0,0,0],"id":24,"left_children":[1,3,5,7,9,11,13,15,17,19,21,23,25,-1,-1,-1,-1,-1,-1,-1,-1,-1,-1,-1,-1,-1,-1],"loss_changes":[2.3363374E12,1.6900371E12,1.6396538E12,4.1862994E12,7.280841E11,9.952115E11,2.5634236E11,1.7320287E12,7.285877E12,5.88478E11,2.1730283E11,1.9963914E11,1.3428735E12,0E0,0E0,0E0,0E0,0E0,0E0,0E0,0E0,0E0,0E0,0E0,0E0,0E0,0E0],"parents":[2147483647,0,0,1,1,2,2,3,3,4,4,5,5,6,6,7,7,8,8,9,9,10,10,11,11,12,12],"right_children":[2,4,6,8,10,12,14,16,18,20,22,24,26,-1,-1,-1,-1,-1,-1,-1,-1,-1,-1,-1,-1,-1,-1],"split_conditions":[3E0,4.76893E1,7.5E0,4.76144E1,1.18E3,4.73457E1,1.2310008E9,5.7063E4,-1.22144E2,-1.22203E2,1.5E0,6.4468E4,9.8005E4,1.7791979E4,1.2796586E5,-1.617515E3,9.147066E3,9.269883E3,-7.274621E3,-4.5153086E3,-2.3255971E2,-1.216475E4,-3.0523947E4,-1.8250814E4,1.2209757E3,7.133986E4,9.337991E3],"split_indices":[7,15,2,15,11,15,0,4,16,16,5,18,14,0,0,0,0,0,0,0,0,0,0,0,0,0,0],"split_type":[0,0,0,0,0,0,0,0,0,0,0,0,0,0,0,0,0,0,0,0,0,0,0,0,0,0,0],"sum_hessian":[1.5999E4,1.5381E4,6.18E2,1.2146E4,3.235E3,6.15E2,3E0,8.956E3,3.19E3,3.122E3,1.13E2,5.1E1,5.64E2,1E0,2E0,8.607E3,3.49E2,2.392E3,7.98E2,1.989E3,1.133E3,9.6E1,1.7E1,3.3E1,1.8E1,7E0,5.57E2],"tree_param":{"num_deleted":"0","num_feature":"19","num_nodes":"27","size_leaf_vector":"1"}},{"base_weights":[1.0746619E2,-8.0889893E3,1.6882713E4,-3.441775E4,-4.820107E3,3.6255005E3,5.1378074E4,-8.661543E4,-2.8845166E4,-5.9115713E3,4.6306375E4,3.2599744E2,1.5302464E5,4.2809637E4,2.044976E5,-2.0015865E4,-1.196978E4,-9.765568E3,-3.6388357E3,-4.6267075E3,-5.1908203E2,5.447552E3,2.2755393E4,-3.7262207E2,2.4094629E4,2.6052713E4,-4.3990324E4,-3.4291863E3,8.536546E3,3.562597E4,-1.6483814E4],"categories":[],"categories_nodes":[],"categories_segments":[],"categories_sizes":[],"default_left":[0,0,0,0,0,0,0,0,0,0,0,0,0,0,0,0,0,0,0,0,0,0,0,0,0,0,0,0,0,0,0],"id":25,"left_children":[1,3,5,7,9,11,13,15,17,19,21,23,25,27,29,-1,-1,-1,-1,-1,-1,-1,-1,-1,-1,-1,-1,-1,-1,-1,-1],"loss_changes":[2.2000975E12,9.249537E11,2.4016178E12,3.427711E11,5.3391544E11,1.8706685E12,1.9041346E12,2.5739526E10,1.7701765E11,5.721437E11,2.050588E11,1.673481E12,8.070153E11,1.2810372E12,8.251787E11,0E0,0E0,0E0,0E0,0E0,0E0,0E0,0E0,0E0,0E0,0E0,0E0,0E0,0E0,0E0,0E0],"parents":[2147483647,0,0,1,1,2,2,3,3,4,4,5,5,6,6,7,7,8,8,9,9,10,10,11,11,12,12,13,13,14,14],"right_children":[2,4,6,8,10,12,14,16,18,20,22,24,26,28,30,-1,-1,-1,-1,-1,-1,-1,-1,-1,-1,-1,-1,-1,-1,-1,-1],"split_conditions":[2.168E3,1.02E3,4E0,2.691E3,5.7063E4,2.002E3,3.71E3,-1.22386E2,9.8027E4,4.73395E1,2.006E3,1.2E1,4.0523E4,4.74544E1,9.8122E4,-2.0015865E4,-1.196978E4,-9.765568E3,-3.6388357E3,-4.6267075E3,-5.1908203E2,5.447552E3,2.2755393E4,-3.7262207E2,2.4094629E4,2.6052713E4,-4.3990324E4,-3.4291863E3,8.536546E3,3.562597E4,-1.6483814E4],"split_indices":[17,3,8,4,4,13,17,16,14,15,12,9,18,15,14,0,0,0,0,0,0,0,0,0,0,0,0,0,0,0,0],"split_type":[0,0,0,0,0,0,0,0,0,0,0,0,0,0,0,0,0,0,0,0,0,0,0,0,0,0,0,0,0,0,0],"sum_hessian":[1.5999E4,1.0748E4,5.251E3,1.186E3,9.562E3,3.794E3,1.457E3,1.13E2,1.073E3,9.363E3,1.99E2,3.713E3,8.1E1,1.381E3,7.6E1,1.2E1,1.01E2,1.19E2,9.54E2,8.37E2,8.526E3,1.83E2,1.6E1,3.65E3,6.3E1,7.8E1,3E0,2.44E2,1.137E3,6.9E1,7E0],"tree_param":{"num_deleted":"0","num_feature":"19","num_nodes":"31","size_leaf_vector":"1"}},{"base_weights":[9.182895E1,-6.833424E3,1.6773494E4,-1.4314471E4,4.283576E3,2.3595656E4,-3.721425E4,-4.25999E4,-1.1782202E4,-2.2619217E4,1.0552443E4,6.3426523E3,6.1568594E4,-2.775312E4,-1.45807E5,-4.2173755E3,-8.493465E3,-1.3787151E3,-5.606749E3,-3.6029602E3,1.0571642E4,1.5469574E4,1.3256942E3,-5.5343584E3,2.3370754E3,2.0972684E4,-3.7049646E2,-8.949377E3,-7.845371E2,-2.575845E4,-8.5739795E3],"categories":[],"categories_nodes":[],"categories_segments":[],"categories_sizes":[],"default_left":[0,0,0,0,0,0,0,0,0,0,0,0,0,0,0,0,0,0,0,0,0,0,0,0,0,0,0,0,0,0,0],"id":26,"left_children":[1,3,5,7,9,11,13,15,17,19,21,23,25,27,29,-1,-1,-1,-1,-1,-1,-1,-1,-1,-1,-1,-1,-1,-1,-1,-1],"loss_changes":[1.8485106E12,9.404282E11,1.7297398E12,4.836203E11,7.674276E11,2.7302628E12,5.3739854E11,1.1113562E11,4.111325E11,1.13822925E11,5.847778E11,1.1457395E12,6.524633E12,3.4897186E11,8.667418E10,0E0,0E0,0E0,0E0,0E0,0E0,0E0,0E0,0E0,0E0,0E0,0E0,0E0,0E0,0E0,0E0],"parents":[2147483647,0,0,1,1,2,2,3,3,4,4,5,5,6,6,7,7,8,8,9,9,10,10,11,11,12,12,13,13,14,14],"right_children":[2,4,6,8,10,12,14,16,18,20,22,24,26,28,30,-1,-1,-1,-1,-1,-1,-1,-1,-1,-1,-1,-1,-1,-1,-1,-1],"split_conditions":[2.07E3,4E0,4.77188E1,8.7E2,4.73896E1,4.76144E1,8.6E2,4.75637E1,9.1E2,1E0,9.8005E4,4.7353E1,-1.22196E2,9.8038E4,4E0,-4.2173755E3,-8.493465E3,-1.3787151E3,-5.606749E3,-3.6029602E3,1.0571642E4,1.5469574E4,1.3256942E3,-5.5343584E3,2.3370754E3,2.0972684E4,-3.7049646E2,-8.949377E3,-7.845371E2,-2.575845E4,-8.5739795E3],"split_indices":[10,8,15,10,15,15,11,15,11,6,14,15,16,14,8,0,0,0,0,0,0,0,0,0,0,0,0,0,0,0,0],"split_type":[0,0,0,0,0,0,0,0,0,0,0,0,0,0,0,0,0,0,0,0,0,0,0,0,0,0,0,0,0,0,0],"sum_hessian":[1.5999E4,1.1306E4,4.693E3,6.758E3,4.548E3,4.167E3,5.26E2,5.54E2,6.204E3,8.59E2,3.689E3,2.866E3,1.301E3,4.85E2,4.1E1,2.74E2,2.8E2,5.635E3,5.69E2,8.47E2,1.2E1,6.6E1,3.623E3,5.04E2,2.362E3,5.85E2,7.16E2,2E2,2.85E2,3.1E1,1E1],"tree_param":{"num_deleted":"0","num_feature":"19","num_nodes":"31","size_leaf_vector":"1"}},{"base_weights":[7.664487E1,-8.0491895E2,1.1114608E5,-9.5611884E2,5.9935744E5,4.7938582E4,1.9453498E5,3.900496E3,-1.8181455E4,1.467827E4,1.1008598E5,1.000064E5,-1.4727633E4,6.453422E4,2.818938E5,-7.8606573E2,4.683729E3,-7.3338823E3,-1.8983427E3,-4.9887056E3,2.59565E4,-2.0632684E4,1.3421685E4,2.1177006E4,7.766431E2,1.8544658E4,5.5600492E4],"categories":[],"categories_nodes":[],"categories_segments":[],"categories_sizes":[],"default_left":[0,0,0,0,0,0,0,0,0,0,0,0,0,0,0,0,0,0,0,0,0,0,0,0,0,0,0],"id":27,"left_children":[1,3,5,7,9,11,13,15,17,-1,-1,19,21,23,25,-1,-1,-1,-1,-1,-1,-1,-1,-1,-1,-1,-1],"loss_changes":[1.5667262E12,1.4411415E12,6.547956E11,1.3278721E12,1.9809016E11,2.3966405E11,5.9507094E11,3.0928184E12,5.918197E11,0E0,0E0,3.950841E11,4.4747027E11,1.0390603E11,4.03772E11,0E0,0E0,0E0,0E0,0E0,0E0,0E0,0E0,0E0,0E0,0E0,0E0],"parents":[2147483647,0,0,1,1,2,2,3,3,4,4,5,5,6,6,7,7,8,8,11,11,12,12,13,13,14,14],"right_children":[2,4,6,8,10,12,14,16,18,-1,-1,20,22,24,26,-1,-1,-1,-1,-1,-1,-1,-1,-1,-1,-1,-1],"split_conditions":[1E0,7.75E0,-1.22255E2,4.76865E1,1.2310008E9,3E2,1.2E4,4.76144E1,9.8029E4,1.467827E4,1.1008598E5,-1.2241E2,4E0,4E0,2.3E3,-7.8606573E2,4.683729E3,-7.3338823E3,-1.8983427E3,-4.9887056E3,2.59565E4,-2.0632684E4,1.3421685E4,2.1177006E4,7.766431E2,1.8544658E4,5.5600492E4],"split_indices":[6,2,16,15,0,11,18,15,14,0,0,16,8,1,10,0,0,0,0,0,0,0,0,0,0,0,0],"split_type":[0,0,0,0,0,0,0,0,0,0,0,0,0,0,0,0,0,0,0,0,0,0,0,0,0,0,0],"sum_hessian":[1.5999E4,1.5874E4,1.25E2,1.5871E4,3E0,7.2E1,5.3E1,1.2381E4,3.49E3,1E0,2E0,3.9E1,3.3E1,2.2E1,3.1E1,9.278E3,3.103E3,5.31E2,2.959E3,1.4E1,2.5E1,1.5E1,1.8E1,9E0,1.3E1,1.2E1,1.9E1],"tree_param":{"num_deleted":"0","num_feature":"19","num_nodes":"27","size_leaf_vector":"1"}},{"base_weights":[7.9473236E1,-1.3472741E4,6.7443857E3,-3.5991195E4,-7.401005E3,-1.2507609E4,1.3816088E4,-2.756387E4,-5.9904215E4,1.0954907E4,-1.3197712E4,-1.743705E4,4.841521E4,1.2819576E5,1.0375526E4,-1.1066171E4,-3.3804558E3,-8.39471E3,-2.8840174E4,-1.8394303E3,3.0932512E3,-2.1542673E3,9.382157E3,-2.0433342E3,-1.7595139E4,-5.173785E3,9.066237E3,1.43129375E4,5.1364562E4,1.4367666E3,4.9293133E4],"categories":[],"categories_nodes":[],"categories_segments":[],"categories_sizes":[],"default_left":[0,0,0,0,0,0,0,0,0,0,0,0,0,0,0,0,0,0,0,0,0,0,0,0,0,0,0,0,0,0,0],"id":28,"left_children":[1,3,5,7,9,11,13,15,17,19,21,23,25,27,29,-1,-1,-1,-1,-1,-1,-1,-1,-1,-1,-1,-1,-1,-1,-1,-1],"loss_changes":[1.4452801E12,7.209639E11,1.4604573E12,2.2405435E11,4.4235902E11,8.663535E11,3.085915E12,1.9116596E11,1.4098E11,2.2424481E11,2.7943653E11,1.01443024E12,2.1745225E11,1.5753161E12,1.9290421E12,0E0,0E0,0E0,0E0,0E0,0E0,0E0,0E0,0E0,0E0,0E0,0E0,0E0,0E0,0E0,0E0],"parents":[2147483647,0,0,1,1,2,2,3,3,4,4,5,5,6,6,7,7,8,8,9,9,10,10,11,11,12,12,13,13,14,14],"right_children":[2,4,6,8,10,12,14,16,18,20,22,24,26,28,30,-1,-1,-1,-1,-1,-1,-1,-1,-1,-1,-1,-1,-1,-1,-1,-1],"split_conditions":[1.59E3,3.545E3,4.7475E1,9.8125E4,-1.2235E2,7.623E4,9.8005E4,1.13E3,9E0,9.8108E4,2.009E3,1E1,1.95E3,8.864E9,5.5E0,-1.1066171E4,-3.3804558E3,-8.39471E3,-2.8840174E4,-1.8394303E3,3.0932512E3,-2.1542673E3,9.382157E3,-2.0433342E3,-1.7595139E4,-5.173785E3,9.066237E3,1.43129375E4,5.1364562E4,1.4367666E3,4.9293133E4],"split_indices":[17,4,15,14,16,4,14,17,9,14,12,9,12,0,2,0,0,0,0,0,0,0,0,0,0,0,0,0,0,0,0],"split_type":[0,0,0,0,0,0,0,0,0,0,0,0,0,0,0,0,0,0,0,0,0,0,0,0,0,0,0,0,0,0,0],"sum_hessian":[1.5999E4,5.274E3,1.0725E4,1.119E3,4.155E3,2.881E3,7.844E3,8.29E2,2.9E2,9.97E2,3.158E3,2.666E3,2.15E2,2.28E2,7.616E3,8E1,7.49E2,2.83E2,7E0,2.93E2,7.04E2,3.111E3,4.7E1,2.569E3,9.7E1,2.7E1,1.88E2,1.99E2,2.9E1,7.598E3,1.8E1],"tree_param":{"num_deleted":"0","num_feature":"19","num_nodes":"31","size_leaf_vector":"1"}},{"base_weights":[7.114888E1,-1.6715303E3,4.224113E4,-3.461378E3,3.3019074E4,1.5360712E5,1.0143531E4,-1.0229544E4,8.227899E3,2.9550312E4,5.467293E5,-1.7820889E5,1.9129177E5,2.52988E4,-6.860123E4,-1.7493986E3,5.4915776E3,2.6510733E2,5.915838E3,8.997546E2,1.0894828E4,1.3857188E3,1.018189E5,-3.4453445E4,1.5641582E4,2.254685E4,9.202489E4,3.3018826E3,5.361871E4,-1.2534988E4,8.811605E3],"categories":[],"categories_nodes":[],"categories_segments":[],"categories_sizes":[],"default_left":[0,0,0,0,0,0,0,0,0,0,0,0,0,0,0,0,0,0,0,0,0,0,0,0,0,0,0,0,0,0,0],"id":29,"left_children":[1,3,5,7,9,11,13,15,17,19,21,23,25,27,29,-1,-1,-1,-1,-1,-1,-1,-1,-1,-1,-1,-1,-1,-1,-1,-1],"loss_changes":[1.1758906E12,9.54203E11,2.2683008E12,1.1561912E12,1.3274249E12,1.8097093E12,5.912741E11,6.2168826E11,1.08051556E12,7.6056094E11,3.4864352E11,2.4209025E11,2.1224174E12,4.4512844E11,1.5737048E11,0E0,0E0,0E0,0E0,0E0,0E0,0E0,0E0,0E0,0E0,0E0,0E0,0E0,0E0,0E0,0E0],"parents":[2147483647,0,0,1,1,2,2,3,3,4,4,5,5,6,6,7,7,8,8,9,9,10,10,11,11,12,12,13,13,14,14],"right_children":[2,4,6,8,10,12,14,16,18,20,22,24,26,28,30,-1,-1,-1,-1,-1,-1,-1,-1,-1,-1,-1,-1,-1,-1,-1,-1],"split_conditions":[3.43E3,2.011E3,-1.22217E2,4E0,1.1E1,-1.22371E2,-1.21986E2,2.002E3,2.37E3,4.7579E1,2.323089E9,4.77612E1,2.6487E4,5.75E0,2.009E3,-1.7493986E3,5.4915776E3,2.6510733E2,5.915838E3,8.997546E2,1.0894828E4,1.3857188E3,1.018189E5,-3.4453445E4,1.5641582E4,2.254685E4,9.202489E4,3.3018826E3,5.361871E4,-1.2534988E4,8.811605E3],"split_indices":[17,12,16,8,9,16,16,13,17,15,0,15,4,2,12,0,0,0,0,0,0,0,0,0,0,0,0,0,0,0,0],"split_type":[0,0,0,0,0,0,0,0,0,0,0,0,0,0,0,0,0,0,0,0,0,0,0,0,0,0,0,0,0,0,0],"sum_hessian":[1.5999E4,1.5365E4,6.34E2,1.4612E4,7.53E2,1.41E2,4.93E2,9.254E3,5.358E3,7.49E2,4E0,1.4E1,1.27E2,4.14E2,7.9E1,8.98E3,2.74E2,4.44E3,9.18E2,4.85E2,2.64E2,1E0,3E0,1.2E1,2E0,1.17E2,1E1,4.11E2,3E0,7.1E1,8E0],"tree_param":{"num_deleted":"0","num_feature":"19","num_nodes":"31","size_leaf_vector":"1"}},{"base_weights":[7.7594055E1,2.56153E3,-2.6197902E4,-8.455383E3,1.0700743E4,-2.0170533E4,-8.2182875E4,-2.9692104E4,-3.9553762E3,-2.5567166E4,1.532946E4,-2.2878178E4,3.7920504E4,-1.2485813E5,-2.4110838E4,-3.2804167E3,-7.8524697E3,-2.9507534E3,1.959362E2,-3.197869E3,-2.9433617E4,4.992579E3,2.859515E2,-6.2786333E3,-2.4736223E3,-1.768077E4,7.3444404E3,-2.7837379E4,-1.1632845E4,-1.734059E4,-7.4200836E2],"categories":[],"categories_nodes":[],"categories_segments":[],"categories_sizes":[],"default_left":[0,0,0,0,0,0,0,0,0,0,0,0,0,0,0,0,0,0,0,0,0,0,0,0,0,0,0,0,0,0,0],"id":30,"left_children":[1,3,5,7,9,11,13,15,17,19,21,23,25,27,29,-1,-1,-1,-1,-1,-1,-1,-1,-1,-1,-1,-1,-1,-1,-1,-1],"loss_changes":[1.0443335E12,1.3109616E12,4.6468727E11,5.935348E11,1.4118759E12,1.9732264E11,3.2907362E11,1.913414E11,4.239939E11,6.8597626E11,1.7971036E12,1.4405625E11,1.0210955E11,2.0679911E11,1.0112441E11,0E0,0E0,0E0,0E0,0E0,0E0,0E0,0E0,0E0,0E0,0E0,0E0,0E0,0E0,0E0,0E0],"parents":[2147483647,0,0,1,1,2,2,3,3,4,4,5,5,6,6,7,7,8,8,9,9,10,10,11,11,12,12,13,13,14,14],"right_children":[2,4,6,8,10,12,14,16,18,20,22,24,26,28,30,-1,-1,-1,-1,-1,-1,-1,-1,-1,-1,-1,-1,-1,-1,-1,-1],"split_conditions":[4.77333E1,1.44E3,3.06E3,3.436E3,4.7349E1,4.8787E4,2.6487E4,9.8125E4,7E0,4.133E3,-1.22195E2,1.955E3,1.939E3,3.7395E9,2.44E3,-3.2804167E3,-7.8524697E3,-2.9507534E3,1.959362E2,-3.197869E3,-2.9433617E4,4.992579E3,2.859515E2,-6.2786333E3,-2.4736223E3,-1.768077E4,7.3444404E3,-2.7837379E4,-1.1632845E4,-1.734059E4,-7.4200836E2],"split_indices":[15,10,3,4,15,4,4,14,9,3,16,12,12,0,17,0,0,0,0,0,0,0,0,0,0,0,0,0,0,0,0],"split_type":[0,0,0,0,0,0,0,0,0,0,0,0,0,0,0,0,0,0,0,0,0,0,0,0,0,0,0,0,0,0,0],"sum_hessian":[1.5999E4,1.4618E4,1.381E3,6.211E3,8.407E3,1.248E3,1.33E2,1.085E3,5.126E3,9.51E2,7.456E3,1.193E3,5.5E1,7.6E1,5.7E1,8.08E2,2.77E2,1.285E3,3.841E3,9.29E2,2.2E1,3.189E3,4.267E3,2.99E2,8.94E2,3E0,5.2E1,3.2E1,4.4E1,9E0,4.8E1],"tree_param":{"num_deleted":"0","num_feature":"19","num_nodes":"31","size_leaf_vector":"1"}},{"base_weights":[5.8589367E1,-6.470464E2,8.896263E4,-2.85529E3,2.4793547E4,3.68131E4,1.5781361E5,-4.869792E3,3.1155557E4,2.1691973E4,2.3897547E5,-1.5203938E5,6.239555E4,1.2476626E5,3.3224012E5,-8.2481854E2,1.6771082E4,4.0238381E3,5.1897855E4,2.9727139E3,3.783882E4,5.410448E3,5.472275E4,2.5202268E3,-4.357086E4,7.9577997E2,2.3029188E4,9.429093E3,3.1903076E4,1.6913076E4,5.799149E4],"categories":[],"categories_nodes":[],"categories_segments":[],"categories_sizes":[],"default_left":[0,0,0,0,0,0,0,0,0,0,0,0,0,0,0,0,0,0,0,0,0,0,0,0,0,0,0,0,0,0,0],"id":31,"left_children":[1,3,5,7,9,11,13,15,17,19,21,23,25,27,29,-1,-1,-1,-1,-1,-1,-1,-1,-1,-1,-1,-1,-1,-1,-1,-1],"loss_changes":[1.0037995E12,8.919129E11,4.465992E11,1.0010176E12,8.371497E11,3.6217212E11,2.6982167E11,1.0128046E12,1.1044575E12,5.3550128E11,4.464575E11,2.1523874E11,3.3736606E11,2.4244191E11,5.187561E10,0E0,0E0,0E0,0E0,0E0,0E0,0E0,0E0,0E0,0E0,0E0,0E0,0E0,0E0,0E0,0E0],"parents":[2147483647,0,0,1,1,2,2,3,3,4,4,5,5,6,6,7,7,8,8,9,9,10,10,11,11,12,12,13,13,14,14],"right_children":[2,4,6,8,10,12,14,16,18,20,22,24,26,28,30,-1,-1,-1,-1,-1,-1,-1,-1,-1,-1,-1,-1,-1,-1,-1,-1],"split_conditions":[1E0,5E0,4.75577E1,2.011E3,2.5E0,9.8028E4,2.551E4,1.2E1,1.1E1,3.89E3,6.867E3,4.3E2,2.409E3,1.986E3,-1.22238E2,-8.2481854E2,1.6771082E4,4.0238381E3,5.1897855E4,2.9727139E3,3.783882E4,5.410448E3,5.472275E4,2.5202268E3,-4.357086E4,7.9577997E2,2.3029188E4,9.429093E3,3.1903076E4,1.6913076E4,5.799149E4],"split_indices":[6,8,15,12,5,14,18,9,9,17,4,11,17,12,16,0,0,0,0,0,0,0,0,0,0,0,0,0,0,0,0],"split_type":[0,0,0,0,0,0,0,0,0,0,0,0,0,0,0,0,0,0,0,0,0,0,0,0,0,0,0,0,0,0,0],"sum_hessian":[1.5999E4,1.5874E4,1.25E2,1.4607E4,1.267E3,7.2E1,5.3E1,1.3791E4,8.16E2,1.25E3,1.7E1,8E0,6.4E1,4.6E1,7E0,1.3718E4,7.3E1,8.06E2,1E1,1.241E3,9E0,7E0,1E1,4E0,4E0,4E1,2.4E1,2.8E1,1.8E1,2E0,5E0],"tree_param":{"num_deleted":"0","num_feature":"19","num_nodes":"31","size_leaf_vector":"1"}},{"base_weights":[6.67878E1,3.8136008E3,-1.3271843E4,-2.841746E3,2.3823242E4,-9.932138E3,-5.7724355E4,-5.313545E3,3.858499E4,5.169049E4,-3.6307246E4,-7.1010874E3,-6.1114406E4,-4.1327734E4,-1.5492328E5,-6.177992E2,-1.3718891E4,2.1961543E3,1.32731455E4,4.1937305E3,1.9794207E4,-4.4111636E3,-2.3989887E4,-2.7095447E3,2.0097052E3,-1.6192083E4,-6.9689487E3,-7.6914194E3,1.7120742E4,-2.950988E4,-1.2909317E4],"categories":[],"categories_nodes":[],"categories_segments":[],"categories_sizes":[],"default_left":[0,0,0,0,0,0,0,0,0,0,0,0,0,0,0,0,0,0,0,0,0,0,0,0,0,0,0,0,0,0,0],"id":32,"left_children":[1,3,5,7,9,11,13,15,17,19,21,23,25,27,29,-1,-1,-1,-1,-1,-1,-1,-1,-1,-1,-1,-1,-1,-1,-1,-1],"loss_changes":[7.996883E11,1.6636412E12,5.2036665E11,9.601913E11,5.2266197E12,4.726631E11,3.8406226E11,9.103845E11,6.295943E11,4.0558904E12,8.380137E11,6.957581E11,1.12346006E11,3.3219297E11,8.383503E10,0E0,0E0,0E0,0E0,0E0,0E0,0E0,0E0,0E0,0E0,0E0,0E0,0E0,0E0,0E0,0E0],"parents":[2147483647,0,0,1,1,2,2,3,3,4,4,5,5,6,6,7,7,8,8,9,9,10,10,11,11,12,12,13,13,14,14],"right_children":[2,4,6,8,10,12,14,16,18,20,22,24,26,28,30,-1,-1,-1,-1,-1,-1,-1,-1,-1,-1,-1,-1,-1,-1,-1,-1],"split_conditions":[4.76865E1,4.76144E1,1.02E3,4.3088E4,-1.22188E2,-1.22003E2,2E0,6E0,1.991E3,-1.22289E2,-1.21957E2,-1.22215E2,9.8019E4,4E0,1.243E4,-6.177992E2,-1.3718891E4,2.1961543E3,1.32731455E4,4.1937305E3,1.9794207E4,-4.4111636E3,-2.3989887E4,-2.7095447E3,2.0097052E3,-1.6192083E4,-6.9689487E3,-7.6914194E3,1.7120742E4,-2.950988E4,-1.2909317E4],"split_indices":[15,15,11,4,16,16,5,1,12,16,16,16,14,7,18,0,0,0,0,0,0,0,0,0,0,0,0,0,0,0,0],"split_type":[0,0,0,0,0,0,0,0,0,0,0,0,0,0,0,0,0,0,0,0,0,0,0,0,0,0,0,0,0,0,0],"sum_hessian":[1.5999E4,1.2491E4,3.508E3,9.374E3,3.117E3,3.264E3,2.44E2,8.847E3,5.27E2,2.13E3,9.87E2,3.094E3,1.7E2,2.1E2,3.4E1,8.727E3,1.2E2,3.57E2,1.7E2,1.645E3,4.85E2,9.36E2,5.1E1,2.016E3,1.078E3,3.9E1,1.31E2,1.98E2,1.2E1,2E1,1.4E1],"tree_param":{"num_deleted":"0","num_feature":"19","num_nodes":"31","size_leaf_vector":"1"}},{"base_weights":[5.3014523E1,-5.718526E1,4.4075625E5,-6.608836E2,7.599009E4,9.984083E4,2.1590701E4,-2.0098062E4,1.6123732E3,2.9509707E4,1.3741747E5,-2.7085818E3,-1.143402E4,-6.3401302E1,4.052419E3,1.135991E4,-3.8607388E3,4.7250586E3,3.138766E4],"categories":[],"categories_nodes":[],"categories_segments":[],"categories_sizes":[],"default_left":[0,0,0,0,0,0,0,0,0,0,0,0,0,0,0,0,0,0,0],"id":33,"left_children":[1,3,5,7,9,-1,-1,11,13,15,17,-1,-1,-1,-1,-1,-1,-1,-1],"loss_changes":[7.770716E11,7.3446634E11,1.7115152E11,7.013477E11,3.55696E11,0E0,0E0,1.8900628E11,7.3468976E11,1.883714E11,4.042623E11,0E0,0E0,0E0,0E0,0E0,0E0,0E0,0E0],"parents":[2147483647,0,0,1,1,2,2,3,3,4,4,7,7,8,8,9,9,10,10],"right_children":[2,4,6,8,10,-1,-1,12,14,16,18,-1,-1,-1,-1,-1,-1,-1,-1],"split_conditions":[7.75E0,1E0,2.8176E4,7E0,-1.22255E2,9.984083E4,2.1590701E4,2.08E3,5E0,3E2,1.2E4,-2.7085818E3,-1.143402E4,-6.3401302E1,4.052419E3,1.135991E4,-3.8607388E3,4.7250586E3,3.138766E4],"split_indices":[2,6,4,9,16,0,0,3,8,11,18,0,0,0,0,0,0,0,0],"split_type":[0,0,0,0,0,0,0,0,0,0,0,0,0,0,0,0,0,0,0],"sum_hessian":[1.5999E4,1.5996E4,3E0,1.5871E4,1.25E2,1E0,2E0,1.661E3,1.421E4,7.2E1,5.3E1,1.604E3,5.7E1,1.3157E4,1.053E3,3.9E1,3.3E1,2.2E1,3.1E1],"tree_param":{"num_deleted":"0","num_feature":"19","num_nodes":"19","size_leaf_vector":"1"}},{"base_weights":[5.4737057E1,-1.909105E4,2.3141824E3,-1.2034686E4,-4.404051E4,6.9567986E1,3.6205508E4,-2.6631326E3,-3.7157668E4,-3.95547E4,-1.1038811E5,-1.43868E3,4.396078E4,2.7547078E4,1.8407358E5,-2.8451846E3,2.965129E3,-6.2094766E3,1.8538108E3,-1.9038898E3,-7.470516E3,-2.8634326E4,-1.1612946E4,-8.852986E1,-1.2794505E4,5.3423223E3,6.0638168E4,2.957112E3,1.5919948E4,1.839134E4,7.256308E4],"categories":[],"categories_nodes":[],"categories_segments":[],"categories_sizes":[],"default_left":[0,0,0,0,0,0,0,0,0,0,0,0,0,0,0,0,0,0,0,0,0,0,0,0,0,0,0,0,0,0,0],"id":34,"left_children":[1,3,5,7,9,11,13,15,17,19,21,23,25,27,29,-1,-1,-1,-1,-1,-1,-1,-1,-1,-1,-1,-1,-1,-1,-1,-1],"loss_changes":[6.92186E11,2.9682277E11,1.0887538E12,3.1021276E11,1.0634946E11,8.887164E11,1.133121E12,3.5183814E11,7.565296E10,9.572375E10,4.6267662E10,9.2343055E11,1.3266171E12,5.155963E11,8.43255E11,0E0,0E0,0E0,0E0,0E0,0E0,0E0,0E0,0E0,0E0,0E0,0E0,0E0,0E0,0E0,0E0],"parents":[2147483647,0,0,1,1,2,2,3,3,4,4,5,5,6,6,7,7,8,8,9,9,10,10,11,11,12,12,13,13,14,14],"right_children":[2,4,6,8,10,12,14,16,18,20,22,24,26,28,30,-1,-1,-1,-1,-1,-1,-1,-1,-1,-1,-1,-1,-1,-1,-1,-1],"split_conditions":[3.436E3,9.8125E4,2.008E3,4.7674E1,9E0,1.987E3,1.02E3,4.76218E1,2.011E3,-1.22374E2,1.492E3,1.69E3,3.89E3,1.066E4,1.1E1,-2.8451846E3,2.965129E3,-6.2094766E3,1.8538108E3,-1.9038898E3,-7.470516E3,-2.8634326E4,-1.1612946E4,-8.852986E1,-1.2794505E4,5.3423223E3,6.0638168E4,2.957112E3,1.5919948E4,1.839134E4,7.256308E4],"split_indices":[4,14,12,15,9,13,11,15,12,16,17,11,17,4,9,0,0,0,0,0,0,0,0,0,0,0,0,0,0,0,0],"split_type":[0,0,0,0,0,0,0,0,0,0,0,0,0,0,0,0,0,0,0,0,0,0,0,0,0,0,0,0,0,0,0],"sum_hessian":[1.5999E4,1.688E3,1.4311E4,1.317E3,3.71E2,1.3423E4,8.88E2,9.6E2,3.57E2,3.49E2,2.2E1,1.2978E4,4.45E2,8.4E2,4.8E1,5.56E2,4.04E2,3.29E2,2.8E1,9.7E1,2.52E2,5E0,1.7E1,1.2849E4,1.29E2,4.36E2,9E0,7.65E2,7.5E1,4.1E1,7E0],"tree_param":{"num_deleted":"0","num_feature":"19","num_nodes":"31","size_leaf_vector":"1"}},{"base_weights":[5.3334694E1,-2.1076223E4,2.13336E3,-1.4262474E4,-6.84661E4,4.2700953E4,-3.1774158E2,-2.2083168E4,-2.870172E3,-9.077461E4,-5.226571E3,2.0982723E4,9.760038E4,-3.4906855E4,1.7161527E3,-4.0003064E3,-3.1640057E2,-9.4008405E2,1.2151609E4,-1.0989186E4,-2.8799854E4,-8.704979E3,4.258776E3,4.0320708E3,-1.1147664E4,3.1277449E3,2.0789611E4,-2.954611E3,-1.182077E4,-1.6156941E2,3.2926912E3],"categories":[],"categories_nodes":[],"categories_segments":[],"categories_sizes":[],"default_left":[0,0,0,0,0,0,0,0,0,0,0,0,0,0,0,0,0,0,0,0,0,0,0,0,0,0,0,0,0,0,0],"id":35,"left_children":[1,3,5,7,9,11,13,15,17,19,21,23,25,27,29,-1,-1,-1,-1,-1,-1,-1,-1,-1,-1,-1,-1,-1,-1,-1,-1],"loss_changes":[7.032453E11,4.6206602E11,1.4484877E12,1.11751725E11,2.5346585E11,9.875763E11,9.665364E11,6.8087316E10,1.4640107E11,2.217138E11,8.686084E10,3.3698438E11,7.365308E11,5.078789E11,7.334583E11,0E0,0E0,0E0,0E0,0E0,0E0,0E0,0E0,0E0,0E0,0E0,0E0,0E0,0E0,0E0,0E0],"parents":[2147483647,0,0,1,1,2,2,3,3,4,4,5,5,6,6,7,7,8,8,9,9,10,10,11,11,12,12,13,13,14,14],"right_children":[2,4,6,8,10,12,14,16,18,20,22,24,26,28,30,-1,-1,-1,-1,-1,-1,-1,-1,-1,-1,-1,-1,-1,-1,-1,-1],"split_conditions":[4.73424E1,9E0,9.8007E4,1.983E3,-1.22146E2,2.65E3,9.8027E4,-1.22118E2,1.45054E5,4.04E3,1.99E3,2.198E4,4.75537E1,-1.21957E2,1.5783E4,-4.0003064E3,-3.1640057E2,-9.4008405E2,1.2151609E4,-1.0989186E4,-2.8799854E4,-8.704979E3,4.258776E3,4.0320708E3,-1.1147664E4,3.1277449E3,2.0789611E4,-2.954611E3,-1.182077E4,-1.6156941E2,3.2926912E3],"split_indices":[15,9,14,12,16,10,14,16,4,3,12,4,15,16,4,0,0,0,0,0,0,0,0,0,0,0,0,0,0,0,0],"split_type":[0,0,0,0,0,0,0,0,0,0,0,0,0,0,0,0,0,0,0,0,0,0,0,0,0,0,0,0,0,0,0],"sum_hessian":[1.5999E4,1.433E3,1.4566E4,1.254E3,1.79E2,8.29E2,1.3737E4,7.43E2,5.11E2,1.32E2,4.7E1,5.95E2,2.34E2,7.62E2,1.2975E4,6.04E2,1.39E2,4.92E2,1.9E1,1.14E2,1.8E1,1.8E1,2.9E1,5.61E2,3.4E1,8.2E1,1.52E2,5.67E2,1.95E2,1.1402E4,1.573E3],"tree_param":{"num_deleted":"0","num_feature":"19","num_nodes":"31","size_leaf_vector":"1"}},{"base_weights":[4.3320133E1,-5.433818E1,3.905925E5,1.8354559E3,-2.0040719E4,8.755797E4,1.9746525E4,-1.170377E4,5.616467E3,-1.2793932E4,-6.0651656E4,-2.8456523E3,1.8398295E3,1.2000113E4,6.081162E2,-8.1646313E3,-1.4671584E3,-1.5985621E4,-5.7352617E3],"categories":[],"categories_nodes":[],"categories_segments":[],"categories_sizes":[],"default_left":[0,0,0,0,0,0,0,0,0,0,0,0,0,0,0,0,0,0,0],"id":36,"left_children":[1,3,5,7,9,-1,-1,11,13,15,17,-1,-1,-1,-1,-1,-1,-1,-1],"loss_changes":[6.1026723E11,6.042458E11,1.2319752E11,7.482874E11,4.0594493E11,0E0,0E0,5.560755E11,1.3275475E12,1.4674231E11,2.1105941E11,0E0,0E0,0E0,0E0,0E0,0E0,0E0,0E0],"parents":[2147483647,0,0,1,1,2,2,3,3,4,4,7,7,8,8,9,9,10,10],"right_children":[2,4,6,8,10,-1,-1,12,14,16,18,-1,-1,-1,-1,-1,-1,-1,-1],"split_conditions":[7.75E0,4.77333E1,2.8176E4,4.74299E1,2.84E3,8.755797E4,1.9746525E4,-1.22078E2,9.8005E4,1.947E3,9.8029E4,-2.8456523E3,1.8398295E3,1.2000113E4,6.081162E2,-8.1646313E3,-1.4671584E3,-1.5985621E4,-5.7352617E3],"split_indices":[2,15,4,15,3,0,0,16,14,12,14,0,0,0,0,0,0,0,0],"split_type":[0,0,0,0,0,0,0,0,0,0,0,0,0,0,0,0,0,0,0],"sum_hessian":[1.5999E4,1.5996E4,3E0,1.4615E4,1.381E3,1E0,2E0,3.19E3,1.1425E4,1.173E3,2.08E2,2.448E3,7.42E2,2.34E2,1.1191E4,7.8E1,1.095E3,6.7E1,1.41E2],"tree_param":{"num_deleted":"0","num_feature":"19","num_nodes":"19","size_leaf_vector":"1"}},{"base_weights":[4.2289433E1,-7.009853E2,4.8647965E4,-7.6955457E2,8.099112E4,5.975039E4,-1.3563781E5,-3.9991142E1,-5.0912336E4,3.3469918E4,1.6588053E5,-1.9615986E5,6.4707273E4,-2.8041987E3,2.9063568E2,-6.688791E3,-5.8581965E4,7.903488E3,-1.0661184E4,3.464201E4,-1.8006756E4,-3.927605E4,-2.363843E3,1.1303203E4,2.4573774E3],"categories":[],"categories_nodes":[],"categories_segments":[],"categories_sizes":[],"default_left":[0,0,0,0,0,0,0,0,0,0,0,0,0,0,0,0,0,0,0,0,0,0,0,0,0],"id":37,"left_children":[1,3,5,7,-1,9,11,13,15,17,19,21,23,-1,-1,-1,-1,-1,-1,-1,-1,-1,-1,-1,-1],"loss_changes":[5.7807195E11,5.846606E11,5.01195E11,5.76499E11,0E0,6.303743E11,1.8244708E11,5.730974E11,4.677214E11,3.7346437E11,8.6490795E11,1.262107E11,8.2363494E8,0E0,0E0,0E0,0E0,0E0,0E0,0E0,0E0,0E0,0E0,0E0,0E0],"parents":[2147483647,0,0,1,1,2,2,3,3,5,5,6,6,7,7,8,8,9,9,10,10,11,11,12,12],"right_children":[2,4,6,8,-1,10,12,14,16,18,20,22,24,-1,-1,-1,-1,-1,-1,-1,-1,-1,-1,-1,-1],"split_conditions":[4E0,7.75E0,5.4806E4,6E0,8.099112E4,3.16E3,3.2230592E9,9.6E2,2.19E3,8.113101E9,-1.2211E2,-1.22059E2,5.127001E9,-2.8041987E3,2.9063568E2,-6.688791E3,-5.8581965E4,7.903488E3,-1.0661184E4,3.464201E4,-1.8006756E4,-3.927605E4,-2.363843E3,1.1303203E4,2.4573774E3],"split_indices":[7,2,18,1,0,10,0,10,11,0,16,16,0,0,0,0,0,0,0,0,0,0,0,0,0],"split_type":[0,0,0,0,0,0,0,0,0,0,0,0,0,0,0,0,0,0,0,0,0,0,0,0,0],"sum_hessian":[1.5999E4,1.5759E4,2.4E2,1.5758E4,1E0,2.27E2,1.3E1,1.5533E4,2.25E2,1.83E2,4.4E1,1E1,3E0,1.488E3,1.4045E4,2.22E2,3E0,1.55E2,2.8E1,3.6E1,8E0,7E0,3E0,2E0,1E0],"tree_param":{"num_deleted":"0","num_feature":"19","num_nodes":"25","size_leaf_vector":"1"}},{"base_weights":[3.5903313E1,1.4565431E3,-2.4287162E4,5.922456E2,6.0803566E4,2.4376254E4,-5.9269996E4,-1.7905023E4,2.549396E3,5.0117805E4,7.5578445E4,2.5981979E4,-2.7107709E4,-1.06127625E5,-4.866694E4,-3.523303E3,1.9968279E3,8.3708626E1,4.4687925E3,4.8415166E3,2.5774084E4,8.728198E3,2.4377058E3,-1.4328605E4,-3.3640324E4,-8.431652E3,5.420922E3],"categories":[],"categories_nodes":[],"categories_segments":[],"categories_sizes":[],"default_left":[0,0,0,0,0,0,0,0,0,0,0,0,0,0,0,0,0,0,0,0,0,0,0,0,0,0,0],"id":38,"left_children":[1,3,5,7,9,11,13,15,17,19,-1,21,-1,23,25,-1,-1,-1,-1,-1,-1,-1,-1,-1,-1,-1,-1],"loss_changes":[5.5290436E11,7.754188E11,1.5046502E12,5.3952696E11,1.002103E12,1.26545625E11,2.5020767E11,2.4887345E11,7.3109904E11,4.569666E11,0E0,1.143797E11,0E0,9.633274E10,2.7138136E11,0E0,0E0,0E0,0E0,0E0,0E0,0E0,0E0,0E0,0E0,0E0,0E0],"parents":[2147483647,0,0,1,1,2,2,3,3,4,4,5,5,6,6,7,7,8,8,9,9,11,11,13,13,14,14],"right_children":[2,4,6,8,10,12,14,16,18,20,-1,22,-1,24,26,-1,-1,-1,-1,-1,-1,-1,-1,-1,-1,-1,-1],"split_conditions":[-1.21986E2,3.89E3,4.75325E1,3.06E3,2.004E3,1.82E3,9.8019E4,1.84E3,2.007E3,5E3,7.5578445E4,1.8293005E9,-2.7107709E4,8.9E2,2.02554E5,-3.523303E3,1.9968279E3,8.3708626E1,4.4687925E3,4.8415166E3,2.5774084E4,8.728198E3,2.4377058E3,-1.4328605E4,-3.3640324E4,-8.431652E3,5.420922E3],"split_indices":[16,17,15,4,13,11,14,3,12,10,0,0,0,11,4,0,0,0,0,0,0,0,0,0,0,0,0],"split_type":[0,0,0,0,0,0,0,0,0,0,0,0,0,0,0,0,0,0,0,0,0,0,0,0,0,0,0],"sum_hessian":[1.5999E4,1.5117E4,8.82E2,1.4901E4,2.16E2,3.69E2,5.13E2,1.425E3,1.3476E4,2.12E2,4E0,3.67E2,2E0,9.3E1,4.2E2,1.209E3,2.16E2,1.2559E4,9.17E2,1.86E2,2.6E1,8.4E1,2.83E2,8.7E1,6E0,3.86E2,3.4E1],"tree_param":{"num_deleted":"0","num_feature":"19","num_nodes":"27","size_leaf_vector":"1"}},{"base_weights":[3.3162792E1,-4.11698E3,7.98993E3,-6.634927E3,1.7685885E4,2.9946914E3,4.0318793E4,-3.8266575E3,-3.0089096E4,1.3733115E4,2.5211275E5,1.4812519E4,-2.2406472E3,8.4443086E4,1.2603099E4,-6.5386194E2,1.6607229E4,-4.901603E3,5.1704996E4,-3.0399106E2,6.527457E3,4.83903E4,-3.1180139E4,1.9724103E3,3.8172492E4,3.1041364E2,-3.0597078E3,2.2869983E3,2.1223137E4,1.391071E3,3.3438918E4],"categories":[],"categories_nodes":[],"categories_segments":[],"categories_sizes":[],"default_left":[0,0,0,0,0,0,0,0,0,0,0,0,0,0,0,0,0,0,0,0,0,0,0,0,0,0,0,0,0,0,0],"id":39,"left_children":[1,3,5,7,9,11,13,15,17,19,21,23,25,27,29,-1,-1,-1,-1,-1,-1,-1,-1,-1,-1,-1,-1,-1,-1,-1,-1],"loss_changes":[5.2838046E11,5.774295E11,8.85654E11,6.208659E11,1.00564376E12,2.9404096E11,8.9657036E11,5.140322E11,9.89075E11,5.0325927E11,6.5068466E11,5.782119E11,2.578297E11,1.1149219E12,3.1443514E11,0E0,0E0,0E0,0E0,0E0,0E0,0E0,0E0,0E0,0E0,0E0,0E0,0E0,0E0,0E0,0E0],"parents":[2147483647,0,0,1,1,2,2,3,3,4,4,5,5,6,6,7,7,8,8,9,9,10,10,11,11,12,12,13,13,14,14],"right_children":[2,4,6,8,10,12,14,16,18,20,22,24,26,28,30,-1,-1,-1,-1,-1,-1,-1,-1,-1,-1,-1,-1,-1,-1,-1,-1],"split_conditions":[4E0,2.009E3,2.56E3,8.7E2,1.1E1,-1.22323E2,-1.2222E2,2.66151E5,9.8081E9,2.71E3,4.76304E1,2.5E0,7.8E2,-1.2229E2,1.99E3,-6.5386194E2,1.6607229E4,-4.901603E3,5.1704996E4,-3.0399106E2,6.527457E3,4.83903E4,-3.1180139E4,1.9724103E3,3.8172492E4,3.1041364E2,-3.0597078E3,2.2869983E3,2.1223137E4,1.391071E3,3.3438918E4],"split_indices":[8,12,17,11,9,16,16,4,0,3,15,5,11,16,13,0,0,0,0,0,0,0,0,0,0,0,0,0,0,0,0],"split_type":[0,0,0,0,0,0,0,0,0,0,0,0,0,0,0,0,0,0,0,0,0,0,0,0,0,0,0,0,0,0,0],"sum_hessian":[1.5999E4,1.0515E4,5.484E3,9.427E3,1.088E3,4.751E3,7.33E2,8.42E3,1.007E3,1.071E3,1.7E1,1.458E3,3.293E3,2.82E2,4.51E2,8.382E3,3.8E1,1.001E3,6E0,7.01E2,3.7E2,1.5E1,2E0,1.449E3,9E0,2.662E3,6.31E2,1.28E2,1.54E2,4.45E2,6E0],"tree_param":{"num_deleted":"0","num_feature":"19","num_nodes":"31","size_leaf_vector":"1"}},{"base_weights":[3.9564774E1,2.2430388E3,-1.4217198E4,1.9838545E3,2.4132062E5,3.3307327E3,-2.9328693E4,-1.0119732E4,5.7409795E3,4.436628E5,-1.3613645E5,7.9371733E3,-1.3511053E5,-2.7399623E4,-1.1877295E5,-1.9692002E3,5.3314775E3,1.5616718E3,-2.1418335E3,9.818511E4,1.5276713E4,2.600544E3,-3.2581111E4,-7.4480815E3,2.3044983E3,-3.3753086E4,-5.158517E2,-4.2789487E3,4.4450176E4,-2.3097666E4,1.4367095E4],"categories":[],"categories_nodes":[],"categories_segments":[],"categories_sizes":[],"default_left":[0,0,0,0,0,0,0,0,0,0,0,0,0,0,0,0,0,0,0,0,0,0,0,0,0,0,0,0,0,0,0],"id":40,"left_children":[1,3,5,7,9,11,13,15,17,19,21,23,25,27,29,-1,-1,-1,-1,-1,-1,-1,-1,-1,-1,-1,-1,-1,-1,-1,-1],"loss_changes":[5.026624E11,8.582964E11,5.681035E11,6.2965514E11,1.2060311E12,6.3369216E11,1.9534414E11,4.5102822E11,9.880283E11,6.542456E11,7.841914E10,4.1176298E11,3.78061E11,4.198925E11,1.9606277E11,0E0,0E0,0E0,0E0,0E0,0E0,0E0,0E0,0E0,0E0,0E0,0E0,0E0,0E0,0E0,0E0],"parents":[2147483647,0,0,1,1,2,2,3,3,4,4,5,5,6,6,7,7,8,8,9,9,10,10,11,11,12,12,13,13,14,14],"right_children":[2,4,6,8,10,12,14,16,18,20,22,24,26,28,30,-1,-1,-1,-1,-1,-1,-1,-1,-1,-1,-1,-1,-1,-1,-1,-1],"split_conditions":[9.8144E4,5.75E0,-1.22323E2,4.74544E1,2.004E3,3.96E3,3.19E3,7.623E4,-1.22067E2,4E0,2.68E3,4.625E3,-1.22371E2,4.04E3,3.668E4,-1.9692002E3,5.3314775E3,1.5616718E3,-2.1418335E3,9.818511E4,1.5276713E4,2.600544E3,-3.2581111E4,-7.4480815E3,2.3044983E3,-3.3753086E4,-5.158517E2,-4.2789487E3,4.4450176E4,-2.3097666E4,1.4367095E4],"split_indices":[14,2,16,15,12,3,10,4,16,7,17,4,16,3,4,0,0,0,0,0,0,0,0,0,0,0,0,0,0,0,0],"split_type":[0,0,0,0,0,0,0,0,0,0,0,0,0,0,0,0,0,0,0,0,0,0,0,0,0,0,0,0,0,0,0],"sum_hessian":[1.5999E4,1.3858E4,2.141E3,1.3844E4,1.4E1,9.91E2,1.15E3,3.279E3,1.0565E4,9E0,5E0,9.6E2,3.1E1,1.127E3,2.3E1,3.077E3,2.02E2,8.567E3,1.998E3,5E0,4E0,2E0,3E0,1.09E2,8.51E2,1.8E1,1.3E1,1.124E3,3E0,2E1,3E0],"tree_param":{"num_deleted":"0","num_feature":"19","num_nodes":"31","size_leaf_vector":"1"}},{"base_weights":[3.8522358E1,3.204478E3,-9.630206E3,-1.8530851E3,2.0895318E4,-6.9693E3,-4.6725457E4,-1.1473499E4,5.0049175E3,4.671849E4,-2.8393025E4,-3.447738E4,-3.9061362E3,-3.3521688E4,-1.1772347E5,3.9631326E3,-2.8878699E3,2.3770508E3,-9.052252E2,1.4641908E4,2.713705E3,-1.2506338E3,-8.1816846E3,-5.685395E3,2.8047415E3,-6.709279E2,2.2875383E4,-6.582701E3,7.6084575E3,-2.139E4,2.2205176E4],"categories":[],"categories_nodes":[],"categories_segments":[],"categories_sizes":[],"default_left":[0,0,0,0,0,0,0,0,0,0,0,0,0,0,0,0,0,0,0,0,0,0,0,0,0,0,0,0,0,0,0],"id":41,"left_children":[1,3,5,7,9,11,13,15,17,19,21,23,25,27,29,-1,-1,-1,-1,-1,-1,-1,-1,-1,-1,-1,-1,-1,-1,-1,-1],"loss_changes":[4.8980306E11,1.07854076E12,3.8927077E11,6.185901E11,3.4123804E12,3.102857E11,2.435382E11,1.1507367E12,6.553003E11,2.5610187E12,4.8311697E11,6.7918397E10,2.9461034E11,1.9778393E11,2.9216637E11,0E0,0E0,0E0,0E0,0E0,0E0,0E0,0E0,0E0,0E0,0E0,0E0,0E0,0E0,0E0,0E0],"parents":[2147483647,0,0,1,1,2,2,3,3,4,4,5,5,6,6,7,7,8,8,9,9,10,10,11,11,12,12,13,13,14,14],"right_children":[2,4,6,8,10,12,14,16,18,20,22,24,26,28,30,-1,-1,-1,-1,-1,-1,-1,-1,-1,-1,-1,-1,-1,-1,-1,-1],"split_conditions":[4.76797E1,4.76144E1,1.024E3,-1.22249E2,-1.22196E2,3.436E3,3.78E3,-1.22379E2,9.8042E4,4.76415E1,-1.22067E2,2.011E3,1E0,9.8166E4,1E0,3.9631326E3,-2.8878699E3,2.3770508E3,-9.052252E2,1.4641908E4,2.713705E3,-1.2506338E3,-8.1816846E3,-5.685395E3,2.8047415E3,-6.709279E2,2.2875383E4,-6.582701E3,7.6084575E3,-2.139E4,2.2205176E4],"split_indices":[15,15,11,16,16,4,3,16,14,15,16,12,6,14,6,0,0,0,0,0,0,0,0,0,0,0,0,0,0,0,0],"split_type":[0,0,0,0,0,0,0,0,0,0,0,0,0,0,0,0,0,0,0,0,0,0,0,0,0,0,0,0,0,0,0],"sum_hessian":[1.5999E4,1.2053E4,3.946E3,9.374E3,2.679E3,3.683E3,2.63E2,3.901E3,5.473E3,1.758E3,9.21E2,3.68E2,3.315E3,2.23E2,4E1,6.64E2,3.237E3,2.761E3,2.712E3,6.32E2,1.126E3,5.22E2,3.99E2,3.46E2,2.2E1,3.304E3,1.1E1,1.99E2,2.4E1,3.7E1,3E0],"tree_param":{"num_deleted":"0","num_feature":"19","num_nodes":"31","size_leaf_vector":"1"}},{"base_weights":[3.4723297E1,-1.4662251E4,1.8394858E3,-3.4901383E4,-8.581129E3,3.600208E2,2.4237139E4,-3.1568717E4,-1.9906402E4,-3.2591243E3,-2.950631E4,-7.793354E2,3.3528848E4,1.7057299E4,1.4609286E5,-1.3682014E4,-4.166363E3,-1.9535853E3,1.6706078E3,-3.4682463E3,-1.519479E4,-2.4033632E0,-1.1386904E4,4.178765E3,4.152585E4,1.8518368E3,1.4368669E4,2.6708932E4,-2.5623857E4],"categories":[],"categories_nodes":[],"categories_segments":[],"categories_sizes":[],"default_left":[0,0,0,0,0,0,0,0,0,0,0,0,0,0,0,0,0,0,0,0,0,0,0,0,0,0,0,0,0],"id":42,"left_children":[1,3,5,7,9,11,13,15,-1,17,19,21,23,25,27,-1,-1,-1,-1,-1,-1,-1,-1,-1,-1,-1,-1,-1,-1],"loss_changes":[4.2441975E11,2.150846E11,4.722202E11,1.2749888E11,1.4991101E11,5.0525543E11,7.70049E11,8.614878E10,0E0,1.5126716E11,1.2279282E11,7.4130837E11,6.04861E11,3.085788E11,5.2682778E11,0E0,0E0,0E0,0E0,0E0,0E0,0E0,0E0,0E0,0E0,0E0,0E0,0E0,0E0],"parents":[2147483647,0,0,1,1,2,2,3,3,4,4,5,5,6,6,7,7,9,9,10,10,11,11,12,12,13,13,14,14],"right_children":[2,4,6,8,10,12,14,16,-1,18,20,22,24,26,28,-1,-1,-1,-1,-1,-1,-1,-1,-1,-1,-1,-1,-1,-1],"split_conditions":[3.545E3,1.22E3,2.008E3,9E0,9.8125E4,1.987E3,1.02E3,7E2,-1.9906402E4,1.63E3,9E0,1.69E3,3.89E3,1.3959E4,9.8188E4,-1.3682014E4,-4.166363E3,-1.9535853E3,1.6706078E3,-3.4682463E3,-1.519479E4,-2.4033632E0,-1.1386904E4,4.178765E3,4.152585E4,1.8518368E3,1.4368669E4,2.6708932E4,-2.5623857E4],"split_indices":[4,3,12,9,14,13,11,3,0,17,9,11,17,4,14,0,0,0,0,0,0,0,0,0,0,0,0,0,0],"split_type":[0,0,0,0,0,0,0,0,0,0,0,0,0,0,0,0,0,0,0,0,0,0,0,0,0,0,0,0,0],"sum_hessian":[1.5999E4,1.749E3,1.425E4,4.03E2,1.346E3,1.3368E4,8.82E2,3.91E2,1.2E1,1.074E3,2.72E2,1.2925E4,4.43E2,8.34E2,4.8E1,2.2E1,3.69E2,6.4E2,4.34E2,2.51E2,2.1E1,1.2796E4,1.29E2,4.34E2,9E0,7.88E2,4.6E1,4.4E1,4E0],"tree_param":{"num_deleted":"0","num_feature":"19","num_nodes":"29","size_leaf_vector":"1"}},{"base_weights":[2.9191193E1,-1.4081892E3,1.650419E4,7.7416797E2,-1.668155E4,1.4301349E4,1.7064283E5,-5.788109E2,2.508281E4,-1.9637389E4,1.363163E5,1.2929827E4,1.6972869E5,4.0463828E3,2.7629088E5,-1.760935E3,2.5425285E2,9.8203253E2,9.294377E3,-3.468043E3,8.080549E3,3.551595E3,6.233191E4,3.2982153E2,3.929472E3,3.298011E4,4.0528735E3,1.5424525E4,-1.8066742E4,6.0030523E4,-6.0910503E3],"categories":[],"categories_nodes":[],"categories_segments":[],"categories_sizes":[],"default_left":[0,0,0,0,0,0,0,0,0,0,0,0,0,0,0,0,0,0,0,0,0,0,0,0,0,0,0,0,0,0,0],"id":43,"left_children":[1,3,5,7,9,11,13,15,17,19,21,23,25,27,29,-1,-1,-1,-1,-1,-1,-1,-1,-1,-1,-1,-1,-1,-1,-1,-1],"loss_changes":[3.7891667E11,4.9055895E11,4.3353267E11,4.2356012E11,8.347927E11,2.6789423E11,3.156927E11,3.0962736E11,4.637584E11,4.6361706E11,1.0909867E12,1.7889477E11,7.276734E10,1.1076716E11,4.4819507E11,0E0,0E0,0E0,0E0,0E0,0E0,0E0,0E0,0E0,0E0,0E0,0E0,0E0,0E0,0E0,0E0],"parents":[2147483647,0,0,1,1,2,2,3,3,4,4,5,5,6,6,7,7,8,8,9,9,10,10,11,11,12,12,13,13,14,14],"right_children":[2,4,6,8,10,12,14,16,18,20,22,24,26,28,30,-1,-1,-1,-1,-1,-1,-1,-1,-1,-1,-1,-1,-1,-1,-1,-1],"split_conditions":[5E0,8.6E2,2.5E0,4.0588E4,1.2E1,3.89E3,6.867E3,1.21E3,1.992E3,2.008E3,6.6004905E9,1.74E3,4.42E3,2.82E3,9.8122E4,-1.760935E3,2.5425285E2,9.8203253E2,9.294377E3,-3.468043E3,8.080549E3,3.551595E3,6.233191E4,3.2982153E2,3.929472E3,3.298011E4,4.0528735E3,1.5424525E4,-1.8066742E4,6.0030523E4,-6.0910503E3],"split_indices":[8,11,5,4,9,17,4,3,12,12,0,17,3,17,14,0,0,0,0,0,0,0,0,0,0,0,0,0,0,0,0],"split_type":[0,0,0,0,0,0,0,0,0,0,0,0,0,0,0,0,0,0,0,0,0,0,0,0,0,0,0,0,0,0,0],"sum_hessian":[1.5999E4,1.4716E4,1.283E3,1.2877E4,1.839E3,1.266E3,1.7E1,1.2199E4,6.78E2,1.805E3,3.4E1,1.256E3,1E1,7E0,1E1,2.064E3,1.0135E4,4.52E2,2.26E2,1.724E3,8.1E1,2.5E1,9E0,6.95E2,5.61E2,7E0,3E0,4E0,3E0,7E0,3E0],"tree_param":{"num_deleted":"0","num_feature":"19","num_nodes":"31","size_leaf_vector":"1"}},{"base_weights":[3.555487E1,1.5185054E3,-1.5651341E4,1.3586093E3,1.9603895E5,-1.0730886E4,-6.1397586E4,-1.0551973E4,3.893883E3,-3.4955414E4,3.0515756E5,-2.4556389E4,-4.5186025E3,-1.1371425E5,-3.5426914E4,-8.292456E2,-7.140598E3,2.4066772E3,-9.1964035E1,7.026252E4,-3.4787953E4,-2.155396E3,-1.1082741E4,-1.0757445E3,6.5800347E3,-2.2484494E4,-5.065282E3,-1.9353574E4,-2.2884236E3],"categories":[],"categories_nodes":[],"categories_segments":[],"categories_sizes":[],"default_left":[0,0,0,0,0,0,0,0,0,0,0,0,0,0,0,0,0,0,0,0,0,0,0,0,0,0,0,0,0],"id":44,"left_children":[1,3,5,7,9,11,13,15,17,-1,19,21,23,25,27,-1,-1,-1,-1,-1,-1,-1,-1,-1,-1,-1,-1,-1,-1],"loss_changes":[3.7223003E11,4.544296E11,3.1041874E11,4.4115277E11,6.3295363E11,1.07163075E11,1.7803713E11,4.769922E11,6.596255E11,0E0,9.854635E11,1.9341125E11,1.11096185E11,1.22213695E11,1.6983238E11,0E0,0E0,0E0,0E0,0E0,0E0,0E0,0E0,0E0,0E0,0E0,0E0,0E0,0E0],"parents":[2147483647,0,0,1,1,2,2,3,3,4,4,5,5,6,6,7,7,8,8,10,10,11,11,12,12,13,13,14,14],"right_children":[2,4,6,8,10,12,14,16,18,-1,20,22,24,26,28,-1,-1,-1,-1,-1,-1,-1,-1,-1,-1,-1,-1,-1,-1],"split_conditions":[4.77333E1,1.3E1,3.06E3,4.73833E1,2.68E3,1.958E3,9.8029E4,9E0,9.8052E4,-3.4955414E4,3.543E4,2.11E3,4.8787E4,-1.22202E2,1.969E3,-8.292456E2,-7.140598E3,2.4066772E3,-9.1964035E1,7.026252E4,-3.4787953E4,-2.155396E3,-1.1082741E4,-1.0757445E3,6.5800347E3,-2.2484494E4,-5.065282E3,-1.9353574E4,-2.2884236E3],"split_indices":[15,9,3,15,17,12,14,9,14,0,4,3,4,16,12,0,0,0,0,0,0,0,0,0,0,0,0,0,0],"split_type":[0,0,0,0,0,0,0,0,0,0,0,0,0,0,0,0,0,0,0,0,0,0,0,0,0,0,0,0,0],"sum_hessian":[1.5999E4,1.4618E4,1.381E3,1.4607E4,1.1E1,1.248E3,1.33E2,2.563E3,1.2044E4,2E0,9E0,3.86E2,8.62E2,4.3E1,9E1,2.258E3,3.05E2,3.258E3,8.786E3,7E0,2E0,3.21E2,6.5E1,8.18E2,4.4E1,2.9E1,1.4E1,1.5E1,7.5E1],"tree_param":{"num_deleted":"0","num_feature":"19","num_nodes":"29","size_leaf_vector":"1"}},{"base_weights":[2.63403E1,1.2115704E3,-2.0266227E4,-6.589853E2,1.8295252E4,1.864372E4,-4.8235902E4,4.9948154E2,-2.6860877E4,8.878497E3,7.100646E4,2.462982E4,-2.7451262E4,-8.801964E4,-3.92385E4,-1.5435898E3,4.7463358E2,-5.7706055E3,3.0943157E3,1.7090658E3,-1.6742355E4,8.908581E3,1.051264E5,8.878057E3,2.7080442E3,-5.550132E3,2.8022447E4,-1.3942663E4,6.926356E3,-6.733982E3,3.661134E3],"categories":[],"categories_nodes":[],"categories_segments":[],"categories_sizes":[],"default_left":[0,0,0,0,0,0,0,0,0,0,0,0,0,0,0,0,0,0,0,0,0,0,0,0,0,0,0,0,0,0,0],"id":45,"left_children":[1,3,5,7,9,11,13,15,17,19,21,23,25,27,29,-1,-1,-1,-1,-1,-1,-1,-1,-1,-1,-1,-1,-1,-1,-1,-1],"loss_changes":[3.8484633E11,4.8312254E11,9.618671E11,4.1364773E11,7.399514E11,1.0276991E11,1.805328E11,3.752851E11,3.1892056E11,3.8526897E11,1.6118219E12,7.347108E10,9.4897816E10,6.6499117E10,1.5261368E11,0E0,0E0,0E0,0E0,0E0,0E0,0E0,0E0,0E0,0E0,0E0,0E0,0E0,0E0,0E0,0E0],"parents":[2147483647,0,0,1,1,2,2,3,3,4,4,5,5,6,6,7,7,8,8,9,9,10,10,11,11,12,12,13,13,14,14],"right_children":[2,4,6,8,10,12,14,16,18,20,22,24,26,28,30,-1,-1,-1,-1,-1,-1,-1,-1,-1,-1,-1,-1,-1,-1,-1,-1],"split_conditions":[-1.21986E2,1.5761E4,4.75325E1,1.19E3,1.997E3,1E0,9.8019E4,4.7425E1,3E0,1.91E3,2.05E3,1.4234002E9,4.15E3,5E0,2.02554E5,-1.5435898E3,4.7463358E2,-5.7706055E3,3.0943157E3,1.7090658E3,-1.6742355E4,8.908581E3,1.051264E5,8.878057E3,2.7080442E3,-5.550132E3,2.8022447E4,-1.3942663E4,6.926356E3,-6.733982E3,3.661134E3],"split_indices":[16,18,15,11,12,7,14,15,7,11,11,0,10,1,4,0,0,0,0,0,0,0,0,0,0,0,0,0,0,0,0],"split_type":[0,0,0,0,0,0,0,0,0,0,0,0,0,0,0,0,0,0,0,0,0,0,0,0,0,0,0,0,0,0,0],"sum_hessian":[1.5999E4,1.5117E4,8.82E2,1.3626E4,1.491E3,3.69E2,5.13E2,1.305E4,5.76E2,1.266E3,2.25E2,3.27E2,4.2E1,9.3E1,4.2E2,2.584E3,1.0466E4,4.63E2,1.13E2,1.241E3,2.5E1,2.22E2,3E0,5.1E1,2.76E2,4.1E1,1E0,9E1,3E0,3.86E2,3.4E1],"tree_param":{"num_deleted":"0","num_feature":"19","num_nodes":"31","size_leaf_vector":"1"}},{"base_weights":[2.984611E1,5.971672E2,-3.7226723E4,-1.30459375E4,2.291201E3,-4.0815164E4,2.5986517E5,-4.8865484E4,-1.0458901E4,4.6464688E3,-9.046672E3,5.1290934E4,-5.3840848E4,7.4106E3,5.1059066E4,-9.386317E3,-1.5739363E3,-6.956321E2,-3.3715935E3,1.3983828E3,-9.665411E2,-1.0279076E3,-1.3414552E4,1.3548856E4,-1.7985365E4,-3.7090222E3,-1.2799182E4],"categories":[],"categories_nodes":[],"categories_segments":[],"categories_sizes":[],"default_left":[0,0,0,0,0,0,0,0,0,0,0,0,0,0,0,0,0,0,0,0,0,0,0,0,0,0,0],"id":46,"left_children":[1,3,5,7,9,11,13,15,17,19,21,23,25,-1,-1,-1,-1,-1,-1,-1,-1,-1,-1,-1,-1,-1,-1],"loss_changes":[3.3820518E11,3.6429624E11,2.6646964E11,1.6082118E11,3.74455E11,2.8830083E11,3.4027602E10,6.0895592E10,1.1358613E11,6.0213284E11,4.2476316E11,2.1130509E11,1.8948338E11,0E0,0E0,0E0,0E0,0E0,0E0,0E0,0E0,0E0,0E0,0E0,0E0,0E0,0E0],"parents":[2147483647,0,0,1,1,2,2,3,3,4,4,5,5,6,6,7,7,8,8,9,9,10,10,11,11,12,12],"right_children":[2,4,6,8,10,12,14,16,18,20,22,24,26,-1,-1,-1,-1,-1,-1,-1,-1,-1,-1,-1,-1,-1,-1],"split_conditions":[6E0,3.545E3,8E0,8E2,4.77037E1,-1.22364E2,1.2310008E9,2E0,4.76681E1,-1.22131E2,3.96E3,7E0,3.08E3,7.4106E3,5.1059066E4,-9.386317E3,-1.5739363E3,-6.956321E2,-3.3715935E3,1.3983828E3,-9.665411E2,-1.0279076E3,-1.3414552E4,1.3548856E4,-1.7985365E4,-3.7090222E3,-1.2799182E4],"split_indices":[1,4,2,10,15,16,0,2,15,16,3,1,3,0,0,0,0,0,0,0,0,0,0,0,0,0,0],"split_type":[0,0,0,0,0,0,0,0,0,0,0,0,0,0,0,0,0,0,0,0,0,0,0,0,0,0,0],"sum_hessian":[1.5999E4,1.576E4,2.39E2,1.74E3,1.402E4,2.37E2,2E0,1.16E2,1.624E3,1.1609E4,2.411E3,2.9E1,2.08E2,1E0,1E0,8.5E1,3.1E1,1.095E3,5.29E2,8.166E3,3.443E3,2.348E3,6.3E1,2.4E1,5E0,1.09E2,9.9E1],"tree_param":{"num_deleted":"0","num_feature":"19","num_nodes":"27","size_leaf_vector":"1"}},{"base_weights":[2.5903246E1,-5.203052E2,3.5744652E4,6.730181E2,-1.661324E4,6.730514E3,8.184532E4,3.7598413E3,-7.655662E3,-1.3479529E4,-2.0214603E5,5.0696586E4,-3.5039016E4,2.3562033E5,5.391163E4,-1.486696E2,3.2712024E3,-9.042415E2,-8.4645205E3,-1.6202799E3,-8.762722E3,-4.720435E4,-2.0197553E4,3.5578894E2,2.5536707E4,-1.3317537E2,-1.4737358E4,4.389667E4,-1.0652463E4,9.870894E3,-4.0996688E4],"categories":[],"categories_nodes":[],"categories_segments":[],"categories_sizes":[],"default_left":[0,0,0,0,0,0,0,0,0,0,0,0,0,0,0,0,0,0,0,0,0,0,0,0,0,0,0,0,0,0,0],"id":47,"left_children":[1,3,5,7,9,11,13,15,17,19,21,23,25,27,29,-1,-1,-1,-1,-1,-1,-1,-1,-1,-1,-1,-1,-1,-1,-1,-1],"loss_changes":[3.121767E11,3.026674E11,3.2180378E11,3.7725936E11,6.298449E11,2.754062E11,3.8677912E11,9.180223E11,3.146193E11,1.2824296E11,9.4365155E10,4.2132606E11,1.6613248E11,2.6558235E11,3.2935304E11,0E0,0E0,0E0,0E0,0E0,0E0,0E0,0E0,0E0,0E0,0E0,0E0,0E0,0E0,0E0,0E0],"parents":[2147483647,0,0,1,1,2,2,3,3,4,4,5,5,6,6,7,7,8,8,9,9,10,10,11,11,12,12,13,13,14,14],"right_children":[2,4,6,8,10,12,14,16,18,20,22,24,26,28,30,-1,-1,-1,-1,-1,-1,-1,-1,-1,-1,-1,-1,-1,-1,-1,-1],"split_conditions":[4E0,9.8168E4,4.75934E1,4.76752E1,4.04E3,4E0,1.7368009E9,4.76119E1,1.19E3,2.68E3,6.36E3,-1.22249E2,1.41E3,3.77E3,5.7063E4,-1.486696E2,3.2712024E3,-9.042415E2,-8.4645205E3,-1.6202799E3,-8.762722E3,-4.720435E4,-2.0197553E4,3.5578894E2,2.5536707E4,-1.3317537E2,-1.4737358E4,4.389667E4,-1.0652463E4,9.870894E3,-4.0996688E4],"split_indices":[7,14,15,15,3,1,0,15,11,17,4,16,11,17,4,0,0,0,0,0,0,0,0,0,0,0,0,0,0,0,0],"split_type":[0,0,0,0,0,0,0,0,0,0,0,0,0,0,0,0,0,0,0,0,0,0,0,0,0,0,0,0,0,0,0],"sum_hessian":[1.5999E4,1.5759E4,2.4E2,1.4672E4,1.087E3,1.48E2,9.2E1,1.0705E4,3.967E3,1.07E3,1.7E1,7.2E1,7.6E1,1.3E1,7.9E1,8.475E3,2.23E3,3.84E3,1.27E2,1.011E3,5.9E1,5E0,1.2E1,5.2E1,2E1,5E1,2.6E1,1.1E1,2E0,7.7E1,2E0],"tree_param":{"num_deleted":"0","num_feature":"19","num_nodes":"31","size_leaf_vector":"1"}},{"base_weights":[1.758741E1,-1.2464184E4,1.4769584E3,-9.899716E3,-5.0714797E4,1.5651483E4,-4.8547237E1,-1.0340502E4,3.358967E4,-2.503856E4,-7.954807E4,-1.04596455E4,2.888792E4,-4.9754037E2,5.7584695E4,-7.9906445E2,-3.6064595E3,1.1771631E3,-5.5455786E3,-1.309774E4,1.0305137E4,1.5338754E2,-6.468975E3,1.0427384E4,7.607344E1,-1.9541957E2,4.489284E3,3.0621277E3,1.56643E4],"categories":[],"categories_nodes":[],"categories_segments":[],"categories_sizes":[],"default_left":[0,0,0,0,0,0,0,0,0,0,0,0,0,0,0,0,0,0,0,0,0,0,0,0,0,0,0,0,0],"id":48,"left_children":[1,3,5,7,9,11,13,15,-1,17,19,21,23,25,27,-1,-1,-1,-1,-1,-1,-1,-1,-1,-1,-1,-1,-1,-1],"loss_changes":[2.9146694E11,1.6380281E11,3.0977642E11,1.6423744E11,7.574287E10,4.8140278E11,3.3474678E11,1.0765671E11,0E0,2.265684E10,6.244306E10,1.759605E11,1.06538546E12,3.1453155E11,1.719896E11,0E0,0E0,0E0,0E0,0E0,0E0,0E0,0E0,0E0,0E0,0E0,0E0,0E0,0E0],"parents":[2147483647,0,0,1,1,2,2,3,3,4,4,5,5,6,6,7,7,9,9,10,10,11,11,12,12,13,13,14,14],"right_children":[2,4,6,8,10,12,14,16,-1,18,20,22,24,26,28,-1,-1,-1,-1,-1,-1,-1,-1,-1,-1,-1,-1,-1,-1],"split_conditions":[7E0,1.9E3,1.929E3,1.86E3,4.75292E1,4.76119E1,1E0,4.7607E1,3.358967E4,1.28E3,5E0,2.39E3,4.76604E1,9.1681E4,4.75685E1,-7.9906445E2,-3.6064595E3,1.1771631E3,-5.5455786E3,-1.309774E4,1.0305137E4,1.5338754E2,-6.468975E3,1.0427384E4,7.607344E1,-1.9541957E2,4.489284E3,3.0621277E3,1.56643E4],"split_indices":[9,3,12,10,15,15,6,15,0,10,8,3,15,4,15,0,0,0,0,0,0,0,0,0,0,0,0,0,0],"split_type":[0,0,0,0,0,0,0,0,0,0,0,0,0,0,0,0,0,0,0,0,0,0,0,0,0,0,0,0,0],"sum_hessian":[1.5999E4,1.674E3,1.4325E4,1.57E3,1.04E2,1.391E3,1.2934E4,1.568E3,2E0,5.6E1,4.8E1,4.68E2,9.23E2,1.2835E4,9.9E1,1.149E3,4.19E2,1.5E1,4.1E1,4.6E1,2E0,3.47E2,1.21E2,3.79E2,5.44E2,1.2505E4,3.3E2,5.6E1,4.3E1],"tree_param":{"num_deleted":"0","num_feature":"19","num_nodes":"29","size_leaf_vector":"1"}},{"base_weights":[1.8024954E1,-2.9732903E3,5.7530576E3,-7.7187534E3,4.0527107E3,2.3765452E3,3.2052496E4,-6.95165E3,-1.3023768E5,2.212226E3,6.777056E4,2.2195352E3,5.7420145E4,2.5548127E4,2.4961361E5,-1.1427803E3,1.1883197E4,-2.3518176E4,3.609399E4,4.658273E3,-5.0871704E1,8.328262E3,7.843268E4,3.923654E2,-2.186197E4,3.278033E3,5.879685E4,-4.605022E3,5.3968223E4],"categories":[],"categories_nodes":[],"categories_segments":[],"categories_sizes":[],"default_left":[0,0,0,0,0,0,0,0,0,0,0,0,0,0,0,0,0,0,0,0,0,0,0,0,0,0,0,0,0],"id":49,"left_children":[1,3,5,7,9,11,13,15,17,19,21,23,-1,25,27,-1,-1,-1,-1,-1,-1,-1,-1,-1,-1,-1,-1,-1,-1],"loss_changes":[2.7450175E11,3.5065188E11,4.86994E11,5.890363E11,4.9708217E11,2.8955964E11,8.766438E11,3.5914288E11,4.2174074E11,3.033444E11,6.3434726E11,2.8537756E11,0E0,8.13194E11,5.669475E11,0E0,0E0,0E0,0E0,0E0,0E0,0E0,0E0,0E0,0E0,0E0,0E0,0E0,0E0],"parents":[2147483647,0,0,1,1,2,2,3,3,4,4,5,5,6,6,7,7,8,8,9,9,10,10,11,11,13,13,14,14],"right_children":[2,4,6,8,10,12,14,16,18,20,22,24,-1,26,28,-1,-1,-1,-1,-1,-1,-1,-1,-1,-1,-1,-1,-1,-1],"split_conditions":[4E0,1.995E3,1E0,4.8E3,4.8E3,5.25E0,2.5E0,3.89E3,2.004E3,2E0,9.29085E9,1.91E3,5.7420145E4,1.999E3,4.75834E1,-1.1427803E3,1.1883197E4,-2.3518176E4,3.609399E4,4.658273E3,-5.0871704E1,8.328262E3,7.843268E4,3.923654E2,-2.186197E4,3.278033E3,5.879685E4,-4.605022E3,5.3968223E4],"split_indices":[8,12,7,3,3,2,5,17,13,5,0,11,0,12,15,0,0,0,0,0,0,0,0,0,0,0,0,0,0],"split_type":[0,0,0,0,0,0,0,0,0,0,0,0,0,0,0,0,0,0,0,0,0,0,0,0,0,0,0,0,0],"sum_hessian":[1.5999E4,1.0515E4,5.484E3,6.276E3,4.239E3,4.861E3,6.23E2,6.238E3,3.8E1,4.121E3,1.18E2,4.86E3,1E0,6.06E2,1.7E1,6.191E3,4.7E1,3.6E1,2E0,3.34E2,3.787E3,1.16E2,2E0,4.848E3,1.2E1,6.01E2,5E0,5E0,1.2E1],"tree_param":{"num_deleted":"0","num_feature":"19","num_nodes":"29","size_leaf_vector":"1"}},{"base_weights":[3.1695608E1,-1.171143E4,1.4737303E3,-3.566968E4,-8.924869E3,5.9961847E2,2.8654504E4,-3.2492375E4,-1.1046058E5,-9.206562E3,3.2457629E4,3.4224817E3,-9.545422E3,2.4255414E4,2.1714947E5,1.7434882E3,-5.73341E3,-1.9435557E4,-6.268608E3,-1.2189585E3,-1.2711571E4,-7.9760645E2,1.0451337E3,-5.9394275E2,-4.1656377E3,3.0380283E3,3.1714188E4,5.2603438E4,-3.1701096E4],"categories":[],"categories_nodes":[],"categories_segments":[],"categories_sizes":[],"default_left":[0,0,0,0,0,0,0,0,0,0,0,0,0,0,0,0,0,0,0,0,0,0,0,0,0,0,0,0,0],"id":50,"left_children":[1,3,5,7,9,11,13,15,17,19,-1,21,23,25,27,-1,-1,-1,-1,-1,-1,-1,-1,-1,-1,-1,-1,-1,-1],"loss_changes":[2.7096118E11,1.1651362E11,3.3857287E11,3.9660175E10,1.0157311E11,3.9546703E11,3.6290055E11,4.4936774E10,3.7710234E9,1.2724947E11,0E0,3.3475133E11,3.05913E11,3.2155206E11,6.4632095E11,0E0,0E0,0E0,0E0,0E0,0E0,0E0,0E0,0E0,0E0,0E0,0E0,0E0,0E0],"parents":[2147483647,0,0,1,1,2,2,3,3,4,4,5,5,6,6,7,7,8,8,9,9,11,11,12,12,13,13,14,14],"right_children":[2,4,6,8,10,12,14,16,18,20,-1,22,24,26,28,-1,-1,-1,-1,-1,-1,-1,-1,-1,-1,-1,-1,-1,-1],"split_conditions":[3.545E3,8.5E2,1.987E3,9E0,3.73E3,6.8E2,3.89E3,4.75446E1,9.59E2,1E1,3.2457629E4,4.7457E1,5E0,9.47571E9,2.178E4,1.7434882E3,-5.73341E3,-1.9435557E4,-6.268608E3,-1.2189585E3,-1.2711571E4,-7.9760645E2,1.0451337E3,-5.9394275E2,-4.1656377E3,3.0380283E3,3.1714188E4,5.2603438E4,-3.1701096E4],"split_indices":[4,10,13,9,3,11,17,15,4,9,0,15,1,0,18,0,0,0,0,0,0,0,0,0,0,0,0,0,0],"split_type":[0,0,0,0,0,0,0,0,0,0,0,0,0,0,0,0,0,0,0,0,0,0,0,0,0,0,0,0,0],"sum_hessian":[1.5999E4,1.749E3,1.425E4,1.81E2,1.568E3,1.3807E4,4.43E2,1.75E2,6E0,1.567E3,1E0,1.0802E4,3.005E3,4.34E2,9E0,2E1,1.55E2,4E0,2E0,1.546E3,2.1E1,3.117E3,7.685E3,2.301E3,7.04E2,4.26E2,8E0,7E0,2E0],"tree_param":{"num_deleted":"0","num_feature":"19","num_nodes":"29","size_leaf_vector":"1"}},{"base_weights":[2.9442352E1,1.01983014E3,-1.6927195E4,-4.6740027E2,1.4602584E4,1.6261925E4,-4.0785266E4,-8.291573E1,-6.1721594E4,3.7812594E4,-7.064598E2,1.7616584E4,-2.329953E4,-3.586753E4,-1.0915718E5,-2.1151059E2,2.1351042E3,-1.1120174E4,4.534135E4,3.4749143E3,2.2305805E4,-4.6255963E2,2.4260066E4,2.3546501E3,2.3068555E4,-5.7869023E3,7.642738E3,-1.7922508E4,5.6061875E3],"categories":[],"categories_nodes":[],"categories_segments":[],"categories_sizes":[],"default_left":[0,0,0,0,0,0,0,0,0,0,0,0,0,0,0,0,0,0,0,0,0,0,0,0,0,0,0,0,0],"id":51,"left_children":[1,3,5,7,9,11,13,15,17,19,21,23,-1,25,27,-1,-1,-1,-1,-1,-1,-1,-1,-1,-1,-1,-1,-1,-1],"loss_changes":[2.6871562E11,3.0540077E11,6.998477E11,3.209283E11,5.301687E11,8.874243E10,1.6890954E11,2.573479E11,4.064611E11,9.597005E11,3.4804675E11,9.374649E10,0E0,1.1521117E11,5.5911547E10,0E0,0E0,0E0,0E0,0E0,0E0,0E0,0E0,0E0,0E0,0E0,0E0,0E0,0E0],"parents":[2147483647,0,0,1,1,2,2,3,3,4,4,5,5,6,6,7,7,8,8,9,9,10,10,11,11,13,13,14,14],"right_children":[2,4,6,8,10,12,14,16,18,20,22,24,-1,26,28,-1,-1,-1,-1,-1,-1,-1,-1,-1,-1,-1,-1,-1,-1],"split_conditions":[-1.21986E2,